{"learner":{"attributes":{"scikit_learn":"{\"_estimator_type\": \"regressor\"}"},"feature_names":["temperature_2m_mean","precipitation_sum","wind_speed_10m_max","wind_direction_10m_dominant","street_encode"],"feature_types":["float","float","float","float","int"],"gradient_booster":{"model":{"gbtree_model_param":{"num_parallel_tree":"1","num_trees":"150"},"iteration_indptr":[0,1,2,3,4,5,6,7,8,9,10,11,12,13,14,15,16,17,18,19,20,21,22,23,24,25,26,27,28,29,30,31,32,33,34,35,36,37,38,39,40,41,42,43,44,45,46,47,48,49,50,51,52,53,54,55,56,57,58,59,60,61,62,63,64,65,66,67,68,69,70,71,72,73,74,75,76,77,78,79,80,81,82,83,84,85,86,87,88,89,90,91,92,93,94,95,96,97,98,99,100,101,102,103,104,105,106,107,108,109,110,111,112,113,114,115,116,117,118,119,120,121,122,123,124,125,126,127,128,129,130,131,132,133,134,135,136,137,138,139,140,141,142,143,144,145,146,147,148,149,150],"tree_info":[0,0,0,0,0,0,0,0,0,0,0,0,0,0,0,0,0,0,0,0,0,0,0,0,0,0,0,0,0,0,0,0,0,0,0,0,0,0,0,0,0,0,0,0,0,0,0,0,0,0,0,0,0,0,0,0,0,0,0,0,0,0,0,0,0,0,0,0,0,0,0,0,0,0,0,0,0,0,0,0,0,0,0,0,0,0,0,0,0,0,0,0,0,0,0,0,0,0,0,0,0,0,0,0,0,0,0,0,0,0,0,0,0,0,0,0,0,0,0,0,0,0,0,0,0,0,0,0,0,0,0,0,0,0,0,0,0,0,0,0,0,0,0,0,0,0,0,0,0,0],"trees":[{"base_weights":[1.6632295E-7,-6.4534636E0,3.385238E1,-1.4773263E0,-6.9547715E0,4.099483E1,1.5840878E1,1.2994309E-2,-4.300492E-2,-7.0097044E-2,-2.4048908E-2,7.391944E-2,4.3584502E-1,1.7958742E-1,2.9643897E-2],"categories":[],"categories_nodes":[],"categories_segments":[],"categories_sizes":[],"default_left":[0,0,0,0,0,0,0,0,0,0,0,0,0,0,0],"id":0,"left_children":[1,3,5,7,9,11,13,-1,-1,-1,-1,-1,-1,-1,-1],"loss_changes":[1.5554716E5,1.4814824E3,1.4016273E4,4.4458594E2,1.18859375E2,6.7265E3,8.739658E2,0E0,0E0,0E0,0E0,0E0,0E0,0E0,0E0],"parents":[2147483647,0,0,1,1,2,2,3,3,4,4,5,5,6,6],"right_children":[2,4,6,8,10,12,14,-1,-1,-1,-1,-1,-1,-1,-1],"split_conditions":[2E0,1E0,2.6260703E2,2.0652788E2,2.1264E1,3.1989372E1,3.2555118E2,1.2994309E-2,-4.300492E-2,-7.0097044E-2,-2.4048908E-2,7.391944E-2,4.3584502E-1,1.7958742E-1,2.9643897E-2],"split_indices":[4,4,3,3,0,3,3,0,0,0,0,0,0,0,0],"split_type":[0,0,0,0,0,0,0,0,0,0,0,0,0,0,0],"sum_hessian":[7.1E2,5.97E2,1.13E2,5.5E1,5.42E2,8E1,3.3E1,2.8E1,2.7E1,5.35E2,7E0,6E0,7.4E1,2.8E1,5E0],"tree_param":{"num_deleted":"0","num_feature":"5","num_nodes":"15","size_leaf_vector":"1"}},{"base_weights":[8.3674525E-4,-6.3891363E0,3.3520164E1,-1.4630891E0,-6.885397E0,4.059118E1,1.5688622E1,1.2868843E-2,-4.2590227E-2,-6.939738E-2,-2.383848E-2,7.328584E-2,4.3154472E-1,1.7785347E-1,2.9396866E-2],"categories":[],"categories_nodes":[],"categories_segments":[],"categories_sizes":[],"default_left":[0,0,0,0,0,0,0,0,0,0,0,0,0,0,0],"id":1,"left_children":[1,3,5,7,9,11,13,-1,-1,-1,-1,-1,-1,-1,-1],"loss_changes":[1.5250155E5,1.4517988E3,1.3737102E4,4.3605045E2,1.1628516E2,6.5899375E3,8.565703E2,0E0,0E0,0E0,0E0,0E0,0E0,0E0,0E0],"parents":[2147483647,0,0,1,1,2,2,3,3,4,4,5,5,6,6],"right_children":[2,4,6,8,10,12,14,-1,-1,-1,-1,-1,-1,-1,-1],"split_conditions":[2E0,1E0,2.6260703E2,2.0652788E2,2.1264E1,3.1989372E1,3.2555118E2,1.2868843E-2,-4.2590227E-2,-6.939738E-2,-2.383848E-2,7.328584E-2,4.3154472E-1,1.7785347E-1,2.9396866E-2],"split_indices":[4,4,3,3,0,3,3,0,0,0,0,0,0,0,0],"split_type":[0,0,0,0,0,0,0,0,0,0,0,0,0,0,0],"sum_hessian":[7.1E2,5.97E2,1.13E2,5.5E1,5.42E2,8E1,3.3E1,2.8E1,2.7E1,5.35E2,7E0,6E0,7.4E1,2.8E1,5E0],"tree_param":{"num_deleted":"0","num_feature":"5","num_nodes":"15","size_leaf_vector":"1"}},{"base_weights":[1.6569035E-3,-6.325451E0,3.3191208E1,-1.448989E0,-6.816715E0,4.0191498E1,1.5537832E1,1.2744591E-2,-4.2179536E-2,-6.87047E-2,-2.3629894E-2,7.2657675E-2,4.2728677E-1,1.7613626E-1,2.915189E-2],"categories":[],"categories_nodes":[],"categories_segments":[],"categories_sizes":[],"default_left":[0,0,0,0,0,0,0,0,0,0,0,0,0,0,0],"id":2,"left_children":[1,3,5,7,9,11,13,-1,-1,-1,-1,-1,-1,-1,-1],"loss_changes":[1.4951558E5,1.4227109E3,1.3463492E4,4.2767896E2,1.13765625E2,6.456172E3,8.395215E2,0E0,0E0,0E0,0E0,0E0,0E0,0E0,0E0],"parents":[2147483647,0,0,1,1,2,2,3,3,4,4,5,5,6,6],"right_children":[2,4,6,8,10,12,14,-1,-1,-1,-1,-1,-1,-1,-1],"split_conditions":[2E0,1E0,2.6260703E2,2.0652788E2,2.1264E1,3.1989372E1,3.2555118E2,1.2744591E-2,-4.2179536E-2,-6.87047E-2,-2.3629894E-2,7.2657675E-2,4.2728677E-1,1.7613626E-1,2.915189E-2],"split_indices":[4,4,3,3,0,3,3,0,0,0,0,0,0,0,0],"split_type":[0,0,0,0,0,0,0,0,0,0,0,0,0,0,0],"sum_hessian":[7.1E2,5.97E2,1.13E2,5.5E1,5.42E2,8E1,3.3E1,2.8E1,2.7E1,5.35E2,7E0,6E0,7.4E1,2.8E1,5E0],"tree_param":{"num_deleted":"0","num_feature":"5","num_nodes":"15","size_leaf_vector":"1"}},{"base_weights":[2.4608334E-3,-6.2624E0,3.2865482E1,-1.435025E0,-6.748718E0,3.994742E1,1.5739181E1,1.2621537E-2,-4.1772805E-2,-6.801894E-2,-2.3423132E-2,7.2034895E-2,4.2504984E-1,1.7784196E-1,2.8908955E-2],"categories":[],"categories_nodes":[],"categories_segments":[],"categories_sizes":[],"default_left":[0,0,0,0,0,0,0,0,0,0,0,0,0,0,0],"id":3,"left_children":[1,3,5,7,9,11,13,-1,-1,-1,-1,-1,-1,-1,-1],"loss_changes":[1.465881E5,1.3942031E3,1.3198031E4,4.1946814E2,1.1130078E2,6.3934062E3,8.6821094E2,0E0,0E0,0E0,0E0,0E0,0E0,0E0,0E0],"parents":[2147483647,0,0,1,1,2,2,3,3,4,4,5,5,6,6],"right_children":[2,4,6,8,10,12,14,-1,-1,-1,-1,-1,-1,-1,-1],"split_conditions":[2E0,1E0,2.5916904E2,2.0652788E2,2.1264E1,3.1989372E1,3.2555118E2,1.2621537E-2,-4.1772805E-2,-6.801894E-2,-2.3423132E-2,7.2034895E-2,4.2504984E-1,1.7784196E-1,2.8908955E-2],"split_indices":[4,4,3,3,0,3,3,0,0,0,0,0,0,0,0],"split_type":[0,0,0,0,0,0,0,0,0,0,0,0,0,0,0],"sum_hessian":[7.1E2,5.97E2,1.13E2,5.5E1,5.42E2,7.9E1,3.4E1,2.8E1,2.7E1,5.35E2,7E0,6E0,7.3E1,2.9E1,5E0],"tree_param":{"num_deleted":"0","num_feature":"5","num_nodes":"15","size_leaf_vector":"1"}},{"base_weights":[3.256611E-3,-6.199978E0,3.2543E1,-1.4211954E0,-6.681399E0,3.9405155E1,1.52377825E1,1.249967E-2,-4.1369997E-2,-6.734002E-2,-2.3218181E-2,7.141746E-2,4.1891003E-1,1.7271854E-1,2.866805E-2],"categories":[],"categories_nodes":[],"categories_segments":[],"categories_sizes":[],"default_left":[0,0,0,0,0,0,0,0,0,0,0,0,0,0,0],"id":4,"left_children":[1,3,5,7,9,11,13,-1,-1,-1,-1,-1,-1,-1,-1],"loss_changes":[1.437183E5,1.3662676E3,1.2937172E4,4.1141492E2,1.08890625E2,6.1971875E3,8.060425E2,0E0,0E0,0E0,0E0,0E0,0E0,0E0,0E0],"parents":[2147483647,0,0,1,1,2,2,3,3,4,4,5,5,6,6],"right_children":[2,4,6,8,10,12,14,-1,-1,-1,-1,-1,-1,-1,-1],"split_conditions":[2E0,1E0,2.6260703E2,2.0652788E2,2.1264E1,3.1989372E1,3.2555118E2,1.249967E-2,-4.1369997E-2,-6.734002E-2,-2.3218181E-2,7.141746E-2,4.1891003E-1,1.7271854E-1,2.866805E-2],"split_indices":[4,4,3,3,0,3,3,0,0,0,0,0,0,0,0],"split_type":[0,0,0,0,0,0,0,0,0,0,0,0,0,0,0],"sum_hessian":[7.1E2,5.97E2,1.13E2,5.5E1,5.42E2,8E1,3.3E1,2.8E1,2.7E1,5.35E2,7E0,6E0,7.4E1,2.8E1,5E0],"tree_param":{"num_deleted":"0","num_feature":"5","num_nodes":"15","size_leaf_vector":"1"}},{"base_weights":[4.028773E-3,-6.138178E0,3.2223637E1,-1.4074991E0,-6.614752E0,3.9166546E1,1.5433455E1,1.2378982E-2,-4.0971067E-2,-6.666788E-2,-2.3015022E-2,7.0805304E-2,4.1672432E-1,1.7437114E-1,2.8429147E-2],"categories":[],"categories_nodes":[],"categories_segments":[],"categories_sizes":[],"default_left":[0,0,0,0,0,0,0,0,0,0,0,0,0,0,0],"id":5,"left_children":[1,3,5,7,9,11,13,-1,-1,-1,-1,-1,-1,-1,-1],"loss_changes":[1.4090433E5,1.3388906E3,1.268482E4,4.035164E2,1.065293E2,6.137242E3,8.333789E2,0E0,0E0,0E0,0E0,0E0,0E0,0E0,0E0],"parents":[2147483647,0,0,1,1,2,2,3,3,4,4,5,5,6,6],"right_children":[2,4,6,8,10,12,14,-1,-1,-1,-1,-1,-1,-1,-1],"split_conditions":[2E0,1E0,2.5916904E2,2.0652788E2,2.1264E1,3.1989372E1,3.2555118E2,1.2378982E-2,-4.0971067E-2,-6.666788E-2,-2.3015022E-2,7.0805304E-2,4.1672432E-1,1.7437114E-1,2.8429147E-2],"split_indices":[4,4,3,3,0,3,3,0,0,0,0,0,0,0,0],"split_type":[0,0,0,0,0,0,0,0,0,0,0,0,0,0,0],"sum_hessian":[7.1E2,5.97E2,1.13E2,5.5E1,5.42E2,7.9E1,3.4E1,2.8E1,2.7E1,5.35E2,7E0,6E0,7.3E1,2.9E1,5E0],"tree_param":{"num_deleted":"0","num_feature":"5","num_nodes":"15","size_leaf_vector":"1"}},{"base_weights":[4.793368E-3,-6.0769935E0,3.1907457E1,-1.3939345E0,-6.5487695E0,3.8780975E1,1.5284916E1,1.2259464E-2,-4.057599E-2,-6.6002436E-2,-2.2813639E-2,7.01984E-2,4.126134E-1,8.820894E-2,1.9691886E-1],"categories":[],"categories_nodes":[],"categories_segments":[],"categories_sizes":[],"default_left":[0,0,0,0,0,0,0,0,0,0,0,0,0,0,0],"id":6,"left_children":[1,3,5,7,9,11,13,-1,-1,-1,-1,-1,-1,-1,-1],"loss_changes":[1.3814583E5,1.3120664E3,1.2432352E4,3.957695E2,1.0421875E2,6.0126797E3,8.233364E2,0E0,0E0,0E0,0E0,0E0,0E0,0E0,0E0],"parents":[2147483647,0,0,1,1,2,2,3,3,4,4,5,5,6,6],"right_children":[2,4,6,8,10,12,14,-1,-1,-1,-1,-1,-1,-1,-1],"split_conditions":[2E0,1E0,2.5916904E2,2.0652788E2,2.1264E1,3.1989372E1,3.7473333E0,1.2259464E-2,-4.057599E-2,-6.6002436E-2,-2.2813639E-2,7.01984E-2,4.126134E-1,8.820894E-2,1.9691886E-1],"split_indices":[4,4,3,3,0,3,0,0,0,0,0,0,0,0,0],"split_type":[0,0,0,0,0,0,0,0,0,0,0,0,0,0,0],"sum_hessian":[7.1E2,5.97E2,1.13E2,5.5E1,5.42E2,7.9E1,3.4E1,2.8E1,2.7E1,5.35E2,7E0,6E0,7.3E1,1.5E1,1.9E1],"tree_param":{"num_deleted":"0","num_feature":"5","num_nodes":"15","size_leaf_vector":"1"}},{"base_weights":[5.660785E-3,-6.0164194E0,3.159512E1,-1.3805007E0,-6.483445E0,3.82547E1,1.480038E1,1.2141097E-2,-4.018472E-2,-6.534365E-2,-2.2614019E-2,6.95967E-2,4.0665507E-1,1.6791588E-1,2.7094798E-2],"categories":[],"categories_nodes":[],"categories_segments":[],"categories_sizes":[],"default_left":[0,0,0,0,0,0,0,0,0,0,0,0,0,0,0],"id":7,"left_children":[1,3,5,7,9,11,13,-1,-1,-1,-1,-1,-1,-1,-1],"loss_changes":[1.3544666E5,1.2857773E3,1.218425E4,3.881713E2,1.01958984E2,5.828133E3,7.730703E2,0E0,0E0,0E0,0E0,0E0,0E0,0E0,0E0],"parents":[2147483647,0,0,1,1,2,2,3,3,4,4,5,5,6,6],"right_children":[2,4,6,8,10,12,14,-1,-1,-1,-1,-1,-1,-1,-1],"split_conditions":[2E0,1E0,2.6260703E2,2.0652788E2,2.1264E1,3.1989372E1,3.2555118E2,1.2141097E-2,-4.018472E-2,-6.534365E-2,-2.2614019E-2,6.95967E-2,4.0665507E-1,1.6791588E-1,2.7094798E-2],"split_indices":[4,4,3,3,0,3,3,0,0,0,0,0,0,0,0],"split_type":[0,0,0,0,0,0,0,0,0,0,0,0,0,0,0],"sum_hessian":[7.1E2,5.97E2,1.13E2,5.5E1,5.42E2,8E1,3.3E1,2.8E1,2.7E1,5.35E2,7E0,6E0,7.4E1,2.8E1,5E0],"tree_param":{"num_deleted":"0","num_feature":"5","num_nodes":"15","size_leaf_vector":"1"}},{"base_weights":[6.385104E-3,-5.956449E0,3.1285057E1,-1.3671967E0,-6.4187727E0,3.8909958E1,1.6759989E1,7.128208E-3,-4.61417E-2,-6.4691424E-2,-2.2416148E-2,1.08294874E-1,4.2149565E-1,8.6071804E-2,2.1132484E-1],"categories":[],"categories_nodes":[],"categories_segments":[],"categories_sizes":[],"default_left":[0,0,0,0,0,0,0,0,0,0,0,0,0,0,0],"id":8,"left_children":[1,3,5,7,9,11,13,-1,-1,-1,-1,-1,-1,-1,-1],"loss_changes":[1.3279462E5,1.2600117E3,1.1973609E4,3.8149973E2,9.975E1,6.2753047E3,1.2796816E3,0E0,0E0,0E0,0E0,0E0,0E0,0E0,0E0],"parents":[2147483647,0,0,1,1,2,2,3,3,4,4,5,5,6,6],"right_children":[2,4,6,8,10,12,14,-1,-1,-1,-1,-1,-1,-1,-1],"split_conditions":[2E0,1E0,2.4969514E2,2.4151079E2,2.1264E1,4.7082584E1,3.7473333E0,7.128208E-3,-4.61417E-2,-6.4691424E-2,-2.2416148E-2,1.08294874E-1,4.2149565E-1,8.6071804E-2,2.1132484E-1],"split_indices":[4,4,3,3,0,3,0,0,0,0,0,0,0,0,0],"split_type":[0,0,0,0,0,0,0,0,0,0,0,0,0,0,0],"sum_hessian":[7.1E2,5.97E2,1.13E2,5.5E1,5.42E2,7.3E1,4E1,3.4E1,2.1E1,5.35E2,7E0,8E0,6.5E1,1.5E1,2.5E1],"tree_param":{"num_deleted":"0","num_feature":"5","num_nodes":"15","size_leaf_vector":"1"}},{"base_weights":[7.3074517E-3,-5.8970957E0,3.0979462E1,-1.3542212E0,-6.3547454E0,3.852802E1,1.6599642E1,1.1955051E-2,-3.946644E-2,-6.424909E-2,-3.2446295E-2,1.0733226E-1,4.1734457E-1,8.5264884E-2,2.0929289E-1],"categories":[],"categories_nodes":[],"categories_segments":[],"categories_sizes":[],"default_left":[0,0,0,0,0,0,0,0,0,0,0,0,0,0,0],"id":9,"left_children":[1,3,5,7,9,11,13,-1,-1,-1,-1,-1,-1,-1,-1],"loss_changes":[1.30204734E5,1.234666E3,1.1734805E4,3.748765E2,9.764453E1,6.1471094E3,1.2546562E3,0E0,0E0,0E0,0E0,0E0,0E0,0E0,0E0],"parents":[2147483647,0,0,1,1,2,2,3,3,4,4,5,5,6,6],"right_children":[2,4,6,8,10,12,14,-1,-1,-1,-1,-1,-1,-1,-1],"split_conditions":[2E0,1E0,2.4969514E2,2.0652788E2,1.979525E1,4.7082584E1,3.7473333E0,1.1955051E-2,-3.946644E-2,-6.424909E-2,-3.2446295E-2,1.0733226E-1,4.1734457E-1,8.5264884E-2,2.0929289E-1],"split_indices":[4,4,3,3,0,3,0,0,0,0,0,0,0,0,0],"split_type":[0,0,0,0,0,0,0,0,0,0,0,0,0,0,0],"sum_hessian":[7.1E2,5.97E2,1.13E2,5.5E1,5.42E2,7.3E1,4E1,2.8E1,2.7E1,5.29E2,1.3E1,8E0,6.5E1,1.5E1,2.5E1],"tree_param":{"num_deleted":"0","num_feature":"5","num_nodes":"15","size_leaf_vector":"1"}},{"base_weights":[8.211763E-3,-5.838332E0,3.0676853E1,-1.3411704E0,-6.291376E0,3.7288242E1,1.4688625E1,7.030981E-3,-4.5324534E-2,-6.340799E-2,-2.1936098E-2,6.7151934E-2,3.9676392E-1,1.6644523E-1,2.461026E-2],"categories":[],"categories_nodes":[],"categories_segments":[],"categories_sizes":[],"default_left":[0,0,0,0,0,0,0,0,0,0,0,0,0,0,0],"id":10,"left_children":[1,3,5,7,9,11,13,-1,-1,-1,-1,-1,-1,-1,-1],"loss_changes":[1.2766536E5,1.2099336E3,1.1502586E4,3.685218E2,9.606055E1,5.5746016E3,7.960957E2,0E0,0E0,0E0,0E0,0E0,0E0,0E0,0E0],"parents":[2147483647,0,0,1,1,2,2,3,3,4,4,5,5,6,6],"right_children":[2,4,6,8,10,12,14,-1,-1,-1,-1,-1,-1,-1,-1],"split_conditions":[2E0,1E0,2.5916904E2,2.4151079E2,2.1264E1,3.1989372E1,3.2555118E2,7.030981E-3,-4.5324534E-2,-6.340799E-2,-2.1936098E-2,6.7151934E-2,3.9676392E-1,1.6644523E-1,2.461026E-2],"split_indices":[4,4,3,3,0,3,3,0,0,0,0,0,0,0,0],"split_type":[0,0,0,0,0,0,0,0,0,0,0,0,0,0,0],"sum_hessian":[7.1E2,5.97E2,1.13E2,5.5E1,5.42E2,7.9E1,3.4E1,3.4E1,2.1E1,5.35E2,7E0,6E0,7.3E1,2.9E1,5E0],"tree_param":{"num_deleted":"0","num_feature":"5","num_nodes":"15","size_leaf_vector":"1"}},{"base_weights":[8.876986E-3,-5.7801557E0,3.0375832E1,-1.3284428E0,-6.2286196E0,3.7785152E1,1.6262035E1,1.1771731E-2,-3.876101E-2,-6.297493E-2,-3.176358E-2,1.0504881E-1,4.0932685E-1,8.317104E-2,2.0525762E-1],"categories":[],"categories_nodes":[],"categories_segments":[],"categories_sizes":[],"default_left":[0,0,0,0,0,0,0,0,0,0,0,0,0,0,0],"id":11,"left_children":[1,3,5,7,9,11,13,-1,-1,-1,-1,-1,-1,-1,-1],"loss_changes":[1.2516604E5,1.1855918E3,1.130693E4,3.6203613E2,9.4146484E1,5.9240625E3,1.2181611E3,0E0,0E0,0E0,0E0,0E0,0E0,0E0,0E0],"parents":[2147483647,0,0,1,1,2,2,3,3,4,4,5,5,6,6],"right_children":[2,4,6,8,10,12,14,-1,-1,-1,-1,-1,-1,-1,-1],"split_conditions":[2E0,1E0,2.4969514E2,2.0652788E2,1.979525E1,4.7082584E1,3.7473333E0,1.1771731E-2,-3.876101E-2,-6.297493E-2,-3.176358E-2,1.0504881E-1,4.0932685E-1,8.317104E-2,2.0525762E-1],"split_indices":[4,4,3,3,0,3,0,0,0,0,0,0,0,0,0],"split_type":[0,0,0,0,0,0,0,0,0,0,0,0,0,0,0],"sum_hessian":[7.1E2,5.97E2,1.13E2,5.5E1,5.42E2,7.3E1,4E1,2.8E1,2.7E1,5.29E2,1.3E1,8E0,6.5E1,1.5E1,2.5E1],"tree_param":{"num_deleted":"0","num_feature":"5","num_nodes":"15","size_leaf_vector":"1"}},{"base_weights":[9.746181E-3,-5.722558E0,3.0079115E1,-1.3156404E0,-6.1665077E0,3.7414253E1,1.6106451E1,6.934946E-3,-4.4521898E-2,-6.2150013E-2,-2.146623E-2,1.0411505E-1,4.0529558E-1,8.2391314E-2,2.03284E-1],"categories":[],"categories_nodes":[],"categories_segments":[],"categories_sizes":[],"default_left":[0,0,0,0,0,0,0,0,0,0,0,0,0,0,0],"id":12,"left_children":[1,3,5,7,9,11,13,-1,-1,-1,-1,-1,-1,-1,-1],"loss_changes":[1.227249E5,1.1618438E3,1.1081406E4,3.5598566E2,9.251172E1,5.8030547E3,1.1943438E3,0E0,0E0,0E0,0E0,0E0,0E0,0E0,0E0],"parents":[2147483647,0,0,1,1,2,2,3,3,4,4,5,5,6,6],"right_children":[2,4,6,8,10,12,14,-1,-1,-1,-1,-1,-1,-1,-1],"split_conditions":[2E0,1E0,2.4969514E2,2.4151079E2,2.1264E1,4.7082584E1,3.7473333E0,6.934946E-3,-4.4521898E-2,-6.2150013E-2,-2.146623E-2,1.0411505E-1,4.0529558E-1,8.2391314E-2,2.03284E-1],"split_indices":[4,4,3,3,0,3,0,0,0,0,0,0,0,0,0],"split_type":[0,0,0,0,0,0,0,0,0,0,0,0,0,0,0],"sum_hessian":[7.1E2,5.97E2,1.13E2,5.5E1,5.42E2,7.3E1,4E1,3.4E1,2.1E1,5.35E2,7E0,8E0,6.5E1,1.5E1,2.5E1],"tree_param":{"num_deleted":"0","num_feature":"5","num_nodes":"15","size_leaf_vector":"1"}},{"base_weights":[1.0596419E-2,-5.665535E0,2.9785297E1,-1.3031554E0,-6.1049967E0,3.6072964E1,1.3929821E1,1.15911085E-2,-3.8068186E-2,-6.172604E-2,-3.1094944E-2,6.4783506E-2,3.8354155E-1,1.5871881E-1,2.2215554E-2],"categories":[],"categories_nodes":[],"categories_segments":[],"categories_sizes":[],"default_left":[0,0,0,0,0,0,0,0,0,0,0,0,0,0,0],"id":13,"left_children":[1,3,5,7,9,11,13,-1,-1,-1,-1,-1,-1,-1,-1],"loss_changes":[1.2033139E5,1.1384688E3,1.0862617E4,3.4963495E2,9.077344E1,5.219914E3,7.378374E2,0E0,0E0,0E0,0E0,0E0,0E0,0E0,0E0],"parents":[2147483647,0,0,1,1,2,2,3,3,4,4,5,5,6,6],"right_children":[2,4,6,8,10,12,14,-1,-1,-1,-1,-1,-1,-1,-1],"split_conditions":[2E0,1E0,2.6260703E2,2.0652788E2,1.979525E1,3.1989372E1,3.2555118E2,1.15911085E-2,-3.8068186E-2,-6.172604E-2,-3.1094944E-2,6.4783506E-2,3.8354155E-1,1.5871881E-1,2.2215554E-2],"split_indices":[4,4,3,3,0,3,3,0,0,0,0,0,0,0,0],"split_type":[0,0,0,0,0,0,0,0,0,0,0,0,0,0,0],"sum_hessian":[7.1E2,5.97E2,1.13E2,5.5E1,5.42E2,8E1,3.3E1,2.8E1,2.7E1,5.29E2,1.3E1,6E0,7.4E1,2.8E1,5E0],"tree_param":{"num_deleted":"0","num_feature":"5","num_nodes":"15","size_leaf_vector":"1"}},{"base_weights":[1.1207844E-2,-5.609079E0,2.9492966E1,-1.2905965E0,-6.0441175E0,3.669448E1,1.5775768E1,6.84011E-3,-4.3733537E-2,-6.091699E-2,-2.100632E-2,1.01905376E-1,3.9752677E-1,8.038685E-2,1.993029E-1],"categories":[],"categories_nodes":[],"categories_segments":[],"categories_sizes":[],"default_left":[0,0,0,0,0,0,0,0,0,0,0,0,0,0,0],"id":14,"left_children":[1,3,5,7,9,11,13,-1,-1,-1,-1,-1,-1,-1,-1],"loss_changes":[1.1797524E5,1.115666E3,1.0682547E4,3.4387665E2,8.908984E1,5.592922E3,1.1576865E3,0E0,0E0,0E0,0E0,0E0,0E0,0E0,0E0],"parents":[2147483647,0,0,1,1,2,2,3,3,4,4,5,5,6,6],"right_children":[2,4,6,8,10,12,14,-1,-1,-1,-1,-1,-1,-1,-1],"split_conditions":[2E0,1E0,2.4969514E2,2.4151079E2,2.1264E1,4.7082584E1,3.7473333E0,6.84011E-3,-4.3733537E-2,-6.091699E-2,-2.100632E-2,1.01905376E-1,3.9752677E-1,8.038685E-2,1.993029E-1],"split_indices":[4,4,3,3,0,3,0,0,0,0,0,0,0,0,0],"split_type":[0,0,0,0,0,0,0,0,0,0,0,0,0,0,0],"sum_hessian":[7.1E2,5.97E2,1.13E2,5.5E1,5.42E2,7.3E1,4E1,3.4E1,2.1E1,5.35E2,7E0,8E0,6.5E1,1.5E1,2.5E1],"tree_param":{"num_deleted":"0","num_feature":"5","num_nodes":"15","size_leaf_vector":"1"}},{"base_weights":[1.2024426E-2,-5.553187E0,2.920487E1,-1.2783492E0,-5.9838276E0,3.6334286E1,1.5624832E1,1.1413158E-2,-3.7387755E-2,-6.0501926E-2,-3.0440103E-2,1.0099954E-1,3.9361176E-1,7.963321E-2,1.9738653E-1],"categories":[],"categories_nodes":[],"categories_segments":[],"categories_sizes":[],"default_left":[0,0,0,0,0,0,0,0,0,0,0,0,0,0,0],"id":15,"left_children":[1,3,5,7,9,11,13,-1,-1,-1,-1,-1,-1,-1,-1],"loss_changes":[1.15674336E5,1.0932188E3,1.0469508E4,3.3765796E2,8.752539E1,5.478672E3,1.1350557E3,0E0,0E0,0E0,0E0,0E0,0E0,0E0,0E0],"parents":[2147483647,0,0,1,1,2,2,3,3,4,4,5,5,6,6],"right_children":[2,4,6,8,10,12,14,-1,-1,-1,-1,-1,-1,-1,-1],"split_conditions":[2E0,1E0,2.4969514E2,2.0652788E2,1.979525E1,4.7082584E1,3.7473333E0,1.1413158E-2,-3.7387755E-2,-6.0501926E-2,-3.0440103E-2,1.0099954E-1,3.9361176E-1,7.963321E-2,1.9738653E-1],"split_indices":[4,4,3,3,0,3,0,0,0,0,0,0,0,0,0],"split_type":[0,0,0,0,0,0,0,0,0,0,0,0,0,0,0],"sum_hessian":[7.1E2,5.97E2,1.13E2,5.5E1,5.42E2,7.3E1,4E1,2.8E1,2.7E1,5.29E2,1.3E1,8E0,6.5E1,1.5E1,2.5E1],"tree_param":{"num_deleted":"0","num_feature":"5","num_nodes":"15","size_leaf_vector":"1"}},{"base_weights":[1.2825117E-2,-5.4978504E0,2.891959E1,-1.2660297E0,-5.9241567E0,3.5977627E1,1.547534E1,6.74645E-3,-4.29592E-2,-5.970843E-2,-2.0556161E-2,1.0010178E-1,3.8973525E-1,7.888666E-2,1.9548856E-1],"categories":[],"categories_nodes":[],"categories_segments":[],"categories_sizes":[],"default_left":[0,0,0,0,0,0,0,0,0,0,0,0,0,0,0],"id":16,"left_children":[1,3,5,7,9,11,13,-1,-1,-1,-1,-1,-1,-1,-1],"loss_changes":[1.1341832E5,1.0713203E3,1.02606875E4,3.3217996E2,8.579883E1,5.3667656E3,1.1128682E3,0E0,0E0,0E0,0E0,0E0,0E0,0E0,0E0],"parents":[2147483647,0,0,1,1,2,2,3,3,4,4,5,5,6,6],"right_children":[2,4,6,8,10,12,14,-1,-1,-1,-1,-1,-1,-1,-1],"split_conditions":[2E0,1E0,2.4969514E2,2.4151079E2,2.1264E1,4.7082584E1,3.7473333E0,6.74645E-3,-4.29592E-2,-5.970843E-2,-2.0556161E-2,1.0010178E-1,3.8973525E-1,7.888666E-2,1.9548856E-1],"split_indices":[4,4,3,3,0,3,0,0,0,0,0,0,0,0,0],"split_type":[0,0,0,0,0,0,0,0,0,0,0,0,0,0,0],"sum_hessian":[7.1E2,5.97E2,1.13E2,5.5E1,5.42E2,7.3E1,4E1,3.4E1,2.1E1,5.35E2,7E0,8E0,6.5E1,1.5E1,2.5E1],"tree_param":{"num_deleted":"0","num_feature":"5","num_nodes":"15","size_leaf_vector":"1"}},{"base_weights":[1.3608001E-2,-5.4430666E0,2.8637098E1,-1.2540159E0,-5.8650627E0,3.4689053E1,1.3376938E1,1.1237822E-2,-3.671949E-2,-5.9302084E-2,-2.9798768E-2,6.1631016E-2,3.6888954E-1,1.5293059E-1,1.886196E-2],"categories":[],"categories_nodes":[],"categories_segments":[],"categories_sizes":[],"default_left":[0,0,0,0,0,0,0,0,0,0,0,0,0,0,0],"id":17,"left_children":[1,3,5,7,9,11,13,-1,-1,-1,-1,-1,-1,-1,-1],"loss_changes":[1.11206305E5,1.0497656E3,1.0064297E4,3.2609042E2,8.438867E1,4.85575E3,7.197549E2,0E0,0E0,0E0,0E0,0E0,0E0,0E0,0E0],"parents":[2147483647,0,0,1,1,2,2,3,3,4,4,5,5,6,6],"right_children":[2,4,6,8,10,12,14,-1,-1,-1,-1,-1,-1,-1,-1],"split_conditions":[2E0,1E0,2.6260703E2,2.0652788E2,1.979525E1,3.1989372E1,3.2555118E2,1.1237822E-2,-3.671949E-2,-5.9302084E-2,-2.9798768E-2,6.1631016E-2,3.6888954E-1,1.5293059E-1,1.886196E-2],"split_indices":[4,4,3,3,0,3,3,0,0,0,0,0,0,0,0],"split_type":[0,0,0,0,0,0,0,0,0,0,0,0,0,0,0],"sum_hessian":[7.1E2,5.97E2,1.13E2,5.5E1,5.42E2,8E1,3.3E1,2.8E1,2.7E1,5.29E2,1.3E1,6E0,7.4E1,2.8E1,5E0],"tree_param":{"num_deleted":"0","num_feature":"5","num_nodes":"15","size_leaf_vector":"1"}},{"base_weights":[1.4157657E-2,-5.388828E0,2.835601E1,-1.2419311E0,-5.8065763E0,3.5285477E1,1.51575575E1,6.6539566E-3,-4.219863E-2,-5.852385E-2,-2.0115556E-2,9.798135E-2,3.8226393E-1,7.696475E-2,1.9166009E-1],"categories":[],"categories_nodes":[],"categories_segments":[],"categories_sizes":[],"default_left":[0,0,0,0,0,0,0,0,0,0,0,0,0,0,0],"id":18,"left_children":[1,3,5,7,9,11,13,-1,-1,-1,-1,-1,-1,-1,-1],"loss_changes":[1.0902868E5,1.0287402E3,9.891398E3,3.2088168E2,8.262695E1,5.172203E3,1.0786914E3,0E0,0E0,0E0,0E0,0E0,0E0,0E0,0E0],"parents":[2147483647,0,0,1,1,2,2,3,3,4,4,5,5,6,6],"right_children":[2,4,6,8,10,12,14,-1,-1,-1,-1,-1,-1,-1,-1],"split_conditions":[2E0,1E0,2.4969514E2,2.4151079E2,2.1264E1,4.7082584E1,3.7473333E0,6.6539566E-3,-4.219863E-2,-5.852385E-2,-2.0115556E-2,9.798135E-2,3.8226393E-1,7.696475E-2,1.9166009E-1],"split_indices":[4,4,3,3,0,3,0,0,0,0,0,0,0,0,0],"split_type":[0,0,0,0,0,0,0,0,0,0,0,0,0,0,0],"sum_hessian":[7.1E2,5.97E2,1.13E2,5.5E1,5.42E2,7.3E1,4E1,3.4E1,2.1E1,5.35E2,7E0,8E0,6.5E1,1.5E1,2.5E1],"tree_param":{"num_deleted":"0","num_feature":"5","num_nodes":"15","size_leaf_vector":"1"}},{"base_weights":[1.4908508E-2,-5.3351307E0,2.8079018E1,-1.2301463E0,-5.7486553E0,3.493911E1,1.5012534E1,1.1065071E-2,-3.606318E-2,-5.812606E-2,-2.9170671E-2,9.7110406E-2,3.784992E-1,7.624321E-2,1.8981722E-1],"categories":[],"categories_nodes":[],"categories_segments":[],"categories_sizes":[],"default_left":[0,0,0,0,0,0,0,0,0,0,0,0,0,0,0],"id":19,"left_children":[1,3,5,7,9,11,13,-1,-1,-1,-1,-1,-1,-1,-1],"loss_changes":[1.0690225E5,1.008041E3,9.694125E3,3.1491864E2,8.137109E1,5.0665703E3,1.0576104E3,0E0,0E0,0E0,0E0,0E0,0E0,0E0,0E0],"parents":[2147483647,0,0,1,1,2,2,3,3,4,4,5,5,6,6],"right_children":[2,4,6,8,10,12,14,-1,-1,-1,-1,-1,-1,-1,-1],"split_conditions":[2E0,1E0,2.4969514E2,2.0652788E2,1.979525E1,4.7082584E1,3.7473333E0,1.1065071E-2,-3.606318E-2,-5.812606E-2,-2.9170671E-2,9.7110406E-2,3.784992E-1,7.624321E-2,1.8981722E-1],"split_indices":[4,4,3,3,0,3,0,0,0,0,0,0,0,0,0],"split_type":[0,0,0,0,0,0,0,0,0,0,0,0,0,0,0],"sum_hessian":[7.1E2,5.97E2,1.13E2,5.5E1,5.42E2,7.3E1,4E1,2.8E1,2.7E1,5.29E2,1.3E1,8E0,6.5E1,1.5E1,2.5E1],"tree_param":{"num_deleted":"0","num_feature":"5","num_nodes":"15","size_leaf_vector":"1"}},{"base_weights":[1.564457E-2,-5.281967E0,2.7804735E1,-1.2182915E0,-5.69133E0,3.3684753E1,1.2978671E1,6.5626185E-3,-4.145159E-2,-5.7545893E-2,-2.8899802E-2,5.9430532E-2,3.5824847E-1,1.4871535E-1,1.666715E-2],"categories":[],"categories_nodes":[],"categories_segments":[],"categories_sizes":[],"default_left":[0,0,0,0,0,0,0,0,0,0,0,0,0,0,0],"id":20,"left_children":[1,3,5,7,9,11,13,-1,-1,-1,-1,-1,-1,-1,-1],"loss_changes":[1.0481731E5,9.8784766E2,9.501055E3,3.0996817E2,7.95957E1,4.5960547E3,7.032217E2,0E0,0E0,0E0,0E0,0E0,0E0,0E0,0E0],"parents":[2147483647,0,0,1,1,2,2,3,3,4,4,5,5,6,6],"right_children":[2,4,6,8,10,12,14,-1,-1,-1,-1,-1,-1,-1,-1],"split_conditions":[2E0,1E0,2.6260703E2,2.4151079E2,1.979525E1,3.1989372E1,3.2555118E2,6.5626185E-3,-4.145159E-2,-5.7545893E-2,-2.8899802E-2,5.9430532E-2,3.5824847E-1,1.4871535E-1,1.666715E-2],"split_indices":[4,4,3,3,0,3,3,0,0,0,0,0,0,0,0],"split_type":[0,0,0,0,0,0,0,0,0,0,0,0,0,0,0],"sum_hessian":[7.1E2,5.97E2,1.13E2,5.5E1,5.42E2,8E1,3.3E1,3.4E1,2.1E1,5.29E2,1.3E1,6E0,7.4E1,2.8E1,5E0],"tree_param":{"num_deleted":"0","num_feature":"5","num_nodes":"15","size_leaf_vector":"1"}},{"base_weights":[1.6137322E-2,-5.2293506E0,2.7531801E1,-1.2067314E0,-5.634576E0,3.4266968E1,1.4704139E1,1.0894873E-2,-3.5418604E-2,-5.6791596E-2,-1.9431433E-2,9.5054895E-2,3.7124336E-1,7.438181E-2,1.8609954E-1],"categories":[],"categories_nodes":[],"categories_segments":[],"categories_sizes":[],"default_left":[0,0,0,0,0,0,0,0,0,0,0,0,0,0,0],"id":21,"left_children":[1,3,5,7,9,11,13,-1,-1,-1,-1,-1,-1,-1,-1],"loss_changes":[1.027648E5,9.679795E2,9.345328E3,3.0412897E2,7.833008E1,4.8828125E3,1.0251348E3,0E0,0E0,0E0,0E0,0E0,0E0,0E0,0E0],"parents":[2147483647,0,0,1,1,2,2,3,3,4,4,5,5,6,6],"right_children":[2,4,6,8,10,12,14,-1,-1,-1,-1,-1,-1,-1,-1],"split_conditions":[2E0,1E0,2.4969514E2,2.0652788E2,2.1264E1,4.7082584E1,3.7473333E0,1.0894873E-2,-3.5418604E-2,-5.6791596E-2,-1.9431433E-2,9.5054895E-2,3.7124336E-1,7.438181E-2,1.8609954E-1],"split_indices":[4,4,3,3,0,3,0,0,0,0,0,0,0,0,0],"split_type":[0,0,0,0,0,0,0,0,0,0,0,0,0,0,0],"sum_hessian":[7.1E2,5.97E2,1.13E2,5.5E1,5.42E2,7.3E1,4E1,2.8E1,2.7E1,5.35E2,7E0,8E0,6.5E1,1.5E1,2.5E1],"tree_param":{"num_deleted":"0","num_feature":"5","num_nodes":"15","size_leaf_vector":"1"}},{"base_weights":[1.6856834E-2,-5.1772256E0,2.726286E1,-1.195102E0,-5.5783706E0,3.3930603E1,1.4563451E1,6.47243E-3,-4.0717825E-2,-5.6404676E-2,-2.8290896E-2,9.4209954E-2,3.675872E-1,7.3684484E-2,1.8431011E-1],"categories":[],"categories_nodes":[],"categories_segments":[],"categories_sizes":[],"default_left":[0,0,0,0,0,0,0,0,0,0,0,0,0,0,0],"id":22,"left_children":[1,3,5,7,9,11,13,-1,-1,-1,-1,-1,-1,-1,-1],"loss_changes":[1.0076044E5,9.48584E2,9.158961E3,2.9942636E2,7.674414E1,4.783086E3,1.0051035E3,0E0,0E0,0E0,0E0,0E0,0E0,0E0,0E0],"parents":[2147483647,0,0,1,1,2,2,3,3,4,4,5,5,6,6],"right_children":[2,4,6,8,10,12,14,-1,-1,-1,-1,-1,-1,-1,-1],"split_conditions":[2E0,1E0,2.4969514E2,2.4151079E2,1.979525E1,4.7082584E1,3.7473333E0,6.47243E-3,-4.0717825E-2,-5.6404676E-2,-2.8290896E-2,9.4209954E-2,3.675872E-1,7.3684484E-2,1.8431011E-1],"split_indices":[4,4,3,3,0,3,0,0,0,0,0,0,0,0,0],"split_type":[0,0,0,0,0,0,0,0,0,0,0,0,0,0,0],"sum_hessian":[7.1E2,5.97E2,1.13E2,5.5E1,5.42E2,7.3E1,4E1,3.4E1,2.1E1,5.29E2,1.3E1,8E0,6.5E1,1.5E1,2.5E1],"tree_param":{"num_deleted":"0","num_feature":"5","num_nodes":"15","size_leaf_vector":"1"}},{"base_weights":[1.753301E-2,-5.1256523E0,2.6996544E1,-1.1837628E0,-5.5227427E0,3.3597534E1,1.44241085E1,6.4095533E-3,-4.032916E-2,-5.566489E-2,-1.9013863E-2,5.7298865E-2,3.5972178E-1,7.299369E-2,1.825379E-1],"categories":[],"categories_nodes":[],"categories_segments":[],"categories_sizes":[],"default_left":[0,0,0,0,0,0,0,0,0,0,0,0,0,0,0],"id":23,"left_children":[1,3,5,7,9,11,13,-1,-1,-1,-1,-1,-1,-1,-1],"loss_changes":[9.879535E4,9.295049E2,8.976297E3,2.9372342E2,7.543945E1,4.6908984E3,9.854629E2,0E0,0E0,0E0,0E0,0E0,0E0,0E0,0E0],"parents":[2147483647,0,0,1,1,2,2,3,3,4,4,5,5,6,6],"right_children":[2,4,6,8,10,12,14,-1,-1,-1,-1,-1,-1,-1,-1],"split_conditions":[2E0,1E0,2.4969514E2,2.4151079E2,2.1264E1,3.1989372E1,3.7473333E0,6.4095533E-3,-4.032916E-2,-5.566489E-2,-1.9013863E-2,5.7298865E-2,3.5972178E-1,7.299369E-2,1.825379E-1],"split_indices":[4,4,3,3,0,3,0,0,0,0,0,0,0,0,0],"split_type":[0,0,0,0,0,0,0,0,0,0,0,0,0,0,0],"sum_hessian":[7.1E2,5.97E2,1.13E2,5.5E1,5.42E2,7.3E1,4E1,3.4E1,2.1E1,5.35E2,7E0,6E0,6.7E1,1.5E1,2.5E1],"tree_param":{"num_deleted":"0","num_feature":"5","num_nodes":"15","size_leaf_vector":"1"}},{"base_weights":[1.8151099E-2,-5.0745773E0,2.673248E1,-1.1725309E0,-5.467653E0,3.2391903E1,1.2463486E1,1.0665302E-2,-3.4496825E-2,-5.528609E-2,-2.7694562E-2,5.680773E-2,3.445305E-1,1.43314E-1,1.3579796E-2],"categories":[],"categories_nodes":[],"categories_segments":[],"categories_sizes":[],"default_left":[0,0,0,0,0,0,0,0,0,0,0,0,0,0,0],"id":24,"left_children":[1,3,5,7,9,11,13,-1,-1,-1,-1,-1,-1,-1,-1],"loss_changes":[9.686636E4,9.108008E2,8.802273E3,2.8920538E2,7.399707E1,4.2637812E3,6.8583936E2,0E0,0E0,0E0,0E0,0E0,0E0,0E0,0E0],"parents":[2147483647,0,0,1,1,2,2,3,3,4,4,5,5,6,6],"right_children":[2,4,6,8,10,12,14,-1,-1,-1,-1,-1,-1,-1,-1],"split_conditions":[2E0,1E0,2.6260703E2,2.0652788E2,1.979525E1,3.1989372E1,3.2555118E2,1.0665302E-2,-3.4496825E-2,-5.528609E-2,-2.7694562E-2,5.680773E-2,3.445305E-1,1.43314E-1,1.3579796E-2],"split_indices":[4,4,3,3,0,3,3,0,0,0,0,0,0,0,0],"split_type":[0,0,0,0,0,0,0,0,0,0,0,0,0,0,0],"sum_hessian":[7.1E2,5.97E2,1.13E2,5.5E1,5.42E2,8E1,3.3E1,2.8E1,2.7E1,5.29E2,1.3E1,6E0,7.4E1,2.8E1,5E0],"tree_param":{"num_deleted":"0","num_feature":"5","num_nodes":"15","size_leaf_vector":"1"}},{"base_weights":[1.8604372E-2,-5.02401E0,2.647005E1,-1.161231E0,-5.4131293E0,3.295065E1,1.41277485E1,6.3211056E-3,-3.9614912E-2,-5.4560542E-2,-1.8605163E-2,9.1046825E-2,3.570312E-1,7.120906E-2,1.7896277E-1],"categories":[],"categories_nodes":[],"categories_segments":[],"categories_sizes":[],"default_left":[0,0,0,0,0,0,0,0,0,0,0,0,0,0,0],"id":25,"left_children":[1,3,5,7,9,11,13,-1,-1,-1,-1,-1,-1,-1,-1],"loss_changes":[9.496933E4,8.925576E2,8.652836E3,2.8372623E2,7.26543E1,4.5319453E3,9.5518604E2,0E0,0E0,0E0,0E0,0E0,0E0,0E0,0E0],"parents":[2147483647,0,0,1,1,2,2,3,3,4,4,5,5,6,6],"right_children":[2,4,6,8,10,12,14,-1,-1,-1,-1,-1,-1,-1,-1],"split_conditions":[2E0,1E0,2.4969514E2,2.4151079E2,2.1264E1,4.7082584E1,3.7473333E0,6.3211056E-3,-3.9614912E-2,-5.4560542E-2,-1.8605163E-2,9.1046825E-2,3.570312E-1,7.120906E-2,1.7896277E-1],"split_indices":[4,4,3,3,0,3,0,0,0,0,0,0,0,0,0],"split_type":[0,0,0,0,0,0,0,0,0,0,0,0,0,0,0],"sum_hessian":[7.1E2,5.97E2,1.13E2,5.5E1,5.42E2,7.3E1,4E1,3.4E1,2.1E1,5.35E2,7E0,8E0,6.5E1,1.5E1,2.5E1],"tree_param":{"num_deleted":"0","num_feature":"5","num_nodes":"15","size_leaf_vector":"1"}},{"base_weights":[1.9250818E-2,-4.973948E0,2.6211475E1,-1.1502132E0,-5.3591323E0,3.2627197E1,1.3992573E1,1.05013E-2,-3.3880614E-2,-5.41897E-2,-2.711054E-2,9.023751E-2,3.5351497E-1,7.054148E-2,1.7724197E-1],"categories":[],"categories_nodes":[],"categories_segments":[],"categories_sizes":[],"default_left":[0,0,0,0,0,0,0,0,0,0,0,0,0,0,0],"id":26,"left_children":[1,3,5,7,9,11,13,-1,-1,-1,-1,-1,-1,-1,-1],"loss_changes":[9.311708E4,8.745957E2,8.480273E3,2.793038E2,7.1350586E1,4.439414E3,9.3652637E2,0E0,0E0,0E0,0E0,0E0,0E0,0E0,0E0],"parents":[2147483647,0,0,1,1,2,2,3,3,4,4,5,5,6,6],"right_children":[2,4,6,8,10,12,14,-1,-1,-1,-1,-1,-1,-1,-1],"split_conditions":[2E0,1E0,2.4969514E2,2.0652788E2,1.979525E1,4.7082584E1,3.7473333E0,1.05013E-2,-3.3880614E-2,-5.41897E-2,-2.711054E-2,9.023751E-2,3.5351497E-1,7.054148E-2,1.7724197E-1],"split_indices":[4,4,3,3,0,3,0,0,0,0,0,0,0,0,0],"split_type":[0,0,0,0,0,0,0,0,0,0,0,0,0,0,0],"sum_hessian":[7.1E2,5.97E2,1.13E2,5.5E1,5.42E2,7.3E1,4E1,2.8E1,2.7E1,5.29E2,1.3E1,8E0,6.5E1,1.5E1,2.5E1],"tree_param":{"num_deleted":"0","num_feature":"5","num_nodes":"15","size_leaf_vector":"1"}},{"base_weights":[1.9883668E-2,-4.9243836E0,2.5955427E1,-1.1391283E0,-5.305691E0,3.2306923E1,1.3858691E1,6.2337765E-3,-3.8913365E-2,-5.3478096E-2,-1.820515E-2,5.4766938E-2,3.4593758E-1,6.988015E-2,1.7553772E-1],"categories":[],"categories_nodes":[],"categories_segments":[],"categories_sizes":[],"default_left":[0,0,0,0,0,0,0,0,0,0,0,0,0,0,0],"id":27,"left_children":[1,3,5,7,9,11,13,-1,-1,-1,-1,-1,-1,-1,-1],"loss_changes":[9.130095E4,8.5707715E2,8.311156E3,2.7406964E2,6.997266E1,4.3509062E3,9.1823E2,0E0,0E0,0E0,0E0,0E0,0E0,0E0,0E0],"parents":[2147483647,0,0,1,1,2,2,3,3,4,4,5,5,6,6],"right_children":[2,4,6,8,10,12,14,-1,-1,-1,-1,-1,-1,-1,-1],"split_conditions":[2E0,1E0,2.4969514E2,2.4151079E2,2.1264E1,3.1989372E1,3.7473333E0,6.2337765E-3,-3.8913365E-2,-5.3478096E-2,-1.820515E-2,5.4766938E-2,3.4593758E-1,6.988015E-2,1.7553772E-1],"split_indices":[4,4,3,3,0,3,0,0,0,0,0,0,0,0,0],"split_type":[0,0,0,0,0,0,0,0,0,0,0,0,0,0,0],"sum_hessian":[7.1E2,5.97E2,1.13E2,5.5E1,5.42E2,7.3E1,4E1,3.4E1,2.1E1,5.35E2,7E0,6E0,6.7E1,1.5E1,2.5E1],"tree_param":{"num_deleted":"0","num_feature":"5","num_nodes":"15","size_leaf_vector":"1"}},{"base_weights":[2.0446762E-2,-4.875314E0,2.570154E1,-1.1283209E0,-5.2527657E0,3.1148685E1,1.1968587E1,1.033972E-2,-3.3275414E-2,-5.311505E-2,-2.653858E-2,5.4297514E-2,3.3133805E-1,1.3812082E-1,1.0636004E-2],"categories":[],"categories_nodes":[],"categories_segments":[],"categories_sizes":[],"default_left":[0,0,0,0,0,0,0,0,0,0,0,0,0,0,0],"id":28,"left_children":[1,3,5,7,9,11,13,-1,-1,-1,-1,-1,-1,-1,-1],"loss_changes":[8.951825E4,8.398291E2,8.155008E3,2.6974072E2,6.879785E1,3.9555625E3,6.688208E2,0E0,0E0,0E0,0E0,0E0,0E0,0E0,0E0],"parents":[2147483647,0,0,1,1,2,2,3,3,4,4,5,5,6,6],"right_children":[2,4,6,8,10,12,14,-1,-1,-1,-1,-1,-1,-1,-1],"split_conditions":[2E0,1E0,2.6260703E2,2.0652788E2,1.979525E1,3.1989372E1,3.2555118E2,1.033972E-2,-3.3275414E-2,-5.311505E-2,-2.653858E-2,5.4297514E-2,3.3133805E-1,1.3812082E-1,1.0636004E-2],"split_indices":[4,4,3,3,0,3,3,0,0,0,0,0,0,0,0],"split_type":[0,0,0,0,0,0,0,0,0,0,0,0,0,0,0],"sum_hessian":[7.1E2,5.97E2,1.13E2,5.5E1,5.42E2,8E1,3.3E1,2.8E1,2.7E1,5.29E2,1.3E1,6E0,7.4E1,2.8E1,5E0],"tree_param":{"num_deleted":"0","num_feature":"5","num_nodes":"15","size_leaf_vector":"1"}},{"base_weights":[2.0849518E-2,-4.8267326E0,2.5449211E1,-1.1174471E0,-5.200385E0,3.168487E1,1.3573896E1,6.147543E-3,-3.822429E-2,-5.2763548E-2,-3.1614445E-2,8.720325E-2,3.4336326E-1,6.816917E-2,1.7209965E-1],"categories":[],"categories_nodes":[],"categories_segments":[],"categories_sizes":[],"default_left":[0,0,0,0,0,0,0,0,0,0,0,0,0,0,0],"id":29,"left_children":[1,3,5,7,9,11,13,-1,-1,-1,-1,-1,-1,-1,-1],"loss_changes":[8.776501E4,8.230078E2,8.0116562E3,2.6474194E2,6.7427734E1,4.2063984E3,8.900034E2,0E0,0E0,0E0,0E0,0E0,0E0,0E0,0E0],"parents":[2147483647,0,0,1,1,2,2,3,3,4,4,5,5,6,6],"right_children":[2,4,6,8,10,12,14,-1,-1,-1,-1,-1,-1,-1,-1],"split_conditions":[2E0,1E0,2.4969514E2,2.4151079E2,1.8993166E1,4.7082584E1,3.7473333E0,6.147543E-3,-3.822429E-2,-5.2763548E-2,-3.1614445E-2,8.720325E-2,3.4336326E-1,6.816917E-2,1.7209965E-1],"split_indices":[4,4,3,3,0,3,0,0,0,0,0,0,0,0,0],"split_type":[0,0,0,0,0,0,0,0,0,0,0,0,0,0,0],"sum_hessian":[7.1E2,5.97E2,1.13E2,5.5E1,5.42E2,7.3E1,4E1,3.4E1,2.1E1,5.21E2,2.1E1,8E0,6.5E1,1.5E1,2.5E1],"tree_param":{"num_deleted":"0","num_feature":"5","num_nodes":"15","size_leaf_vector":"1"}},{"base_weights":[2.1420654E-2,-4.7786603E0,2.5200603E1,-1.1068454E0,-5.1485367E0,3.137384E1,1.3444017E1,1.0180534E-2,-3.2681033E-2,-5.1896002E-2,-1.7537016E-2,8.642811E-2,3.3998165E-1,6.753008E-2,1.7044483E-1],"categories":[],"categories_nodes":[],"categories_segments":[],"categories_sizes":[],"default_left":[0,0,0,0,0,0,0,0,0,0,0,0,0,0,0],"id":30,"left_children":[1,3,5,7,9,11,13,-1,-1,-1,-1,-1,-1,-1,-1],"loss_changes":[8.605339E4,8.0645703E2,7.8518984E3,2.6050455E2,6.659473E1,4.1205234E3,8.7261914E2,0E0,0E0,0E0,0E0,0E0,0E0,0E0,0E0],"parents":[2147483647,0,0,1,1,2,2,3,3,4,4,5,5,6,6],"right_children":[2,4,6,8,10,12,14,-1,-1,-1,-1,-1,-1,-1,-1],"split_conditions":[2E0,1E0,2.4969514E2,2.0652788E2,2.1264E1,4.7082584E1,3.7473333E0,1.0180534E-2,-3.2681033E-2,-5.1896002E-2,-1.7537016E-2,8.642811E-2,3.3998165E-1,6.753008E-2,1.7044483E-1],"split_indices":[4,4,3,3,0,3,0,0,0,0,0,0,0,0,0],"split_type":[0,0,0,0,0,0,0,0,0,0,0,0,0,0,0],"sum_hessian":[7.1E2,5.97E2,1.13E2,5.5E1,5.42E2,7.3E1,4E1,2.8E1,2.7E1,5.35E2,7E0,8E0,6.5E1,1.5E1,2.5E1],"tree_param":{"num_deleted":"0","num_feature":"5","num_nodes":"15","size_leaf_vector":"1"}},{"base_weights":[2.201173E-2,-4.731027E0,2.4954426E1,-1.0961788E0,-5.097179E0,3.0246845E1,1.1612062E1,6.062406E-3,-3.754747E-2,-5.1718958E-2,-3.0926622E-2,5.2343838E-2,3.217805E-1,1.3433582E-1,8.727056E-3],"categories":[],"categories_nodes":[],"categories_segments":[],"categories_sizes":[],"default_left":[0,0,0,0,0,0,0,0,0,0,0,0,0,0,0],"id":31,"left_children":[1,3,5,7,9,11,13,-1,-1,-1,-1,-1,-1,-1,-1],"loss_changes":[8.437493E4,7.902949E2,7.6986953E3,2.5573215E2,6.5331055E1,3.744211E3,6.533833E2,0E0,0E0,0E0,0E0,0E0,0E0,0E0,0E0],"parents":[2147483647,0,0,1,1,2,2,3,3,4,4,5,5,6,6],"right_children":[2,4,6,8,10,12,14,-1,-1,-1,-1,-1,-1,-1,-1],"split_conditions":[2E0,1E0,2.6260703E2,2.4151079E2,1.8993166E1,3.1989372E1,3.2555118E2,6.062406E-3,-3.754747E-2,-5.1718958E-2,-3.0926622E-2,5.2343838E-2,3.217805E-1,1.3433582E-1,8.727056E-3],"split_indices":[4,4,3,3,0,3,3,0,0,0,0,0,0,0,0],"split_type":[0,0,0,0,0,0,0,0,0,0,0,0,0,0,0],"sum_hessian":[7.1E2,5.97E2,1.13E2,5.5E1,5.42E2,8E1,3.3E1,3.4E1,2.1E1,5.21E2,2.1E1,6E0,7.4E1,2.8E1,5E0],"tree_param":{"num_deleted":"0","num_feature":"5","num_nodes":"15","size_leaf_vector":"1"}},{"base_weights":[2.2358563E-2,-4.6839075E0,2.4709417E1,-1.0857792E0,-5.0463595E0,3.0770277E1,1.3167638E1,1.0023706E-2,-3.209728E-2,-5.0867215E-2,-1.7112957E-2,8.4595844E-2,3.3346426E-1,6.587311E-2,1.6710621E-1],"categories":[],"categories_nodes":[],"categories_segments":[],"categories_sizes":[],"default_left":[0,0,0,0,0,0,0,0,0,0,0,0,0,0,0],"id":32,"left_children":[1,3,5,7,9,11,13,-1,-1,-1,-1,-1,-1,-1,-1],"loss_changes":[8.272248E4,7.7440137E2,7.5694766E3,2.5158423E2,6.438965E1,3.9711016E3,8.457959E2,0E0,0E0,0E0,0E0,0E0,0E0,0E0,0E0],"parents":[2147483647,0,0,1,1,2,2,3,3,4,4,5,5,6,6],"right_children":[2,4,6,8,10,12,14,-1,-1,-1,-1,-1,-1,-1,-1],"split_conditions":[2E0,1E0,2.4969514E2,2.0652788E2,2.1264E1,4.7082584E1,3.7473333E0,1.0023706E-2,-3.209728E-2,-5.0867215E-2,-1.7112957E-2,8.4595844E-2,3.3346426E-1,6.587311E-2,1.6710621E-1],"split_indices":[4,4,3,3,0,3,0,0,0,0,0,0,0,0,0],"split_type":[0,0,0,0,0,0,0,0,0,0,0,0,0,0,0],"sum_hessian":[7.1E2,5.97E2,1.13E2,5.5E1,5.42E2,7.3E1,4E1,2.8E1,2.7E1,5.35E2,7E0,8E0,6.5E1,1.5E1,2.5E1],"tree_param":{"num_deleted":"0","num_feature":"5","num_nodes":"15","size_leaf_vector":"1"}},{"base_weights":[2.2923827E-2,-4.6372194E0,2.4468035E1,-1.0753157E0,-4.9960213E0,3.0468224E1,1.3041643E1,5.9783445E-3,-3.6882676E-2,-5.069506E-2,-3.0253265E-2,8.384389E-2,3.3018017E-1,1.4723516E-1,7.7679423E-3],"categories":[],"categories_nodes":[],"categories_segments":[],"categories_sizes":[],"default_left":[0,0,0,0,0,0,0,0,0,0,0,0,0,0,0],"id":33,"left_children":[1,3,5,7,9,11,13,-1,-1,-1,-1,-1,-1,-1,-1],"loss_changes":[8.110895E4,7.5888184E2,7.418539E3,2.4702917E2,6.329883E1,3.8900469E3,8.343081E2,0E0,0E0,0E0,0E0,0E0,0E0,0E0,0E0],"parents":[2147483647,0,0,1,1,2,2,3,3,4,4,5,5,6,6],"right_children":[2,4,6,8,10,12,14,-1,-1,-1,-1,-1,-1,-1,-1],"split_conditions":[2E0,1E0,2.4969514E2,2.4151079E2,1.8993166E1,4.7082584E1,3.2555118E2,5.9783445E-3,-3.6882676E-2,-5.069506E-2,-3.0253265E-2,8.384389E-2,3.3018017E-1,1.4723516E-1,7.7679423E-3],"split_indices":[4,4,3,3,0,3,3,0,0,0,0,0,0,0,0],"split_type":[0,0,0,0,0,0,0,0,0,0,0,0,0,0,0],"sum_hessian":[7.1E2,5.97E2,1.13E2,5.5E1,5.42E2,7.3E1,4E1,3.4E1,2.1E1,5.21E2,2.1E1,8E0,6.5E1,3.5E1,5E0],"tree_param":{"num_deleted":"0","num_feature":"5","num_nodes":"15","size_leaf_vector":"1"}},{"base_weights":[2.3337688E-2,-4.5910344E0,2.4228348E1,-1.0651145E0,-4.94621E0,2.937264E1,1.1260225E1,9.869196E-3,-3.1523958E-2,-4.9858827E-2,-1.6698506E-2,5.0451417E-2,3.125157E-1,1.3042267E-1,7.7032116E-3],"categories":[],"categories_nodes":[],"categories_segments":[],"categories_sizes":[],"default_left":[0,0,0,0,0,0,0,0,0,0,0,0,0,0,0],"id":34,"left_children":[1,3,5,7,9,11,13,-1,-1,-1,-1,-1,-1,-1,-1],"loss_changes":[7.952347E4,7.436201E2,7.2744062E3,2.4296884E2,6.2254883E1,3.5448125E3,6.2553076E2,0E0,0E0,0E0,0E0,0E0,0E0,0E0,0E0],"parents":[2147483647,0,0,1,1,2,2,3,3,4,4,5,5,6,6],"right_children":[2,4,6,8,10,12,14,-1,-1,-1,-1,-1,-1,-1,-1],"split_conditions":[2E0,1E0,2.6260703E2,2.0652788E2,2.1264E1,3.1989372E1,3.2555118E2,9.869196E-3,-3.1523958E-2,-4.9858827E-2,-1.6698506E-2,5.0451417E-2,3.125157E-1,1.3042267E-1,7.7032116E-3],"split_indices":[4,4,3,3,0,3,3,0,0,0,0,0,0,0,0],"split_type":[0,0,0,0,0,0,0,0,0,0,0,0,0,0,0],"sum_hessian":[7.1E2,5.97E2,1.13E2,5.5E1,5.42E2,8E1,3.3E1,2.8E1,2.7E1,5.35E2,7E0,6E0,7.4E1,2.8E1,5E0],"tree_param":{"num_deleted":"0","num_feature":"5","num_nodes":"15","size_leaf_vector":"1"}},{"base_weights":[2.3685204E-2,-4.5452714E0,2.399046E1,-1.0548501E0,-4.89687E0,2.9882095E1,1.2771643E1,5.895353E-3,-3.6229696E-2,-4.9691446E-2,-2.9594066E-2,8.206777E-2,3.2385057E-1,6.314411E-2,1.6254106E-1],"categories":[],"categories_nodes":[],"categories_segments":[],"categories_sizes":[],"default_left":[0,0,0,0,0,0,0,0,0,0,0,0,0,0,0],"id":35,"left_children":[1,3,5,7,9,11,13,-1,-1,-1,-1,-1,-1,-1,-1],"loss_changes":[7.796578E4,7.287178E2,7.1534297E3,2.3862268E2,6.13291E1,3.7489219E3,8.193345E2,0E0,0E0,0E0,0E0,0E0,0E0,0E0,0E0],"parents":[2147483647,0,0,1,1,2,2,3,3,4,4,5,5,6,6],"right_children":[2,4,6,8,10,12,14,-1,-1,-1,-1,-1,-1,-1,-1],"split_conditions":[2E0,1E0,2.4969514E2,2.4151079E2,1.8993166E1,4.7082584E1,3.7473333E0,5.895353E-3,-3.6229696E-2,-4.9691446E-2,-2.9594066E-2,8.206777E-2,3.2385057E-1,6.314411E-2,1.6254106E-1],"split_indices":[4,4,3,3,0,3,0,0,0,0,0,0,0,0,0],"split_type":[0,0,0,0,0,0,0,0,0,0,0,0,0,0,0],"sum_hessian":[7.1E2,5.97E2,1.13E2,5.5E1,5.42E2,7.3E1,4E1,3.4E1,2.1E1,5.21E2,2.1E1,8E0,6.5E1,1.5E1,2.5E1],"tree_param":{"num_deleted":"0","num_feature":"5","num_nodes":"15","size_leaf_vector":"1"}},{"base_weights":[2.4182599E-2,-4.5000014E0,2.3756094E1,-1.0448434E0,-4.8480473E0,2.9588758E1,1.2649431E1,9.716981E-3,-3.0960884E-2,-4.9029186E-2,-2.4244854E-2,4.931554E-2,3.169187E-1,6.255214E-2,1.6097817E-1],"categories":[],"categories_nodes":[],"categories_segments":[],"categories_sizes":[],"default_left":[0,0,0,0,0,0,0,0,0,0,0,0,0,0,0],"id":36,"left_children":[1,3,5,7,9,11,13,-1,-1,-1,-1,-1,-1,-1,-1],"loss_changes":[7.644523E4,7.1406055E2,7.0108047E3,2.3464804E2,6.0323242E1,3.6811172E3,8.0334326E2,0E0,0E0,0E0,0E0,0E0,0E0,0E0,0E0],"parents":[2147483647,0,0,1,1,2,2,3,3,4,4,5,5,6,6],"right_children":[2,4,6,8,10,12,14,-1,-1,-1,-1,-1,-1,-1,-1],"split_conditions":[2E0,1E0,2.4969514E2,2.0652788E2,1.979525E1,3.1989372E1,3.7473333E0,9.716981E-3,-3.0960884E-2,-4.9029186E-2,-2.4244854E-2,4.931554E-2,3.169187E-1,6.255214E-2,1.6097817E-1],"split_indices":[4,4,3,3,0,3,0,0,0,0,0,0,0,0,0],"split_type":[0,0,0,0,0,0,0,0,0,0,0,0,0,0,0],"sum_hessian":[7.1E2,5.97E2,1.13E2,5.5E1,5.42E2,7.3E1,4E1,2.8E1,2.7E1,5.29E2,1.3E1,6E0,6.7E1,1.5E1,2.5E1],"tree_param":{"num_deleted":"0","num_feature":"5","num_nodes":"15","size_leaf_vector":"1"}},{"base_weights":[2.4637464E-2,-4.4551597E0,2.3523706E1,-1.0347743E0,-4.7997017E0,2.929782E1,1.2528388E1,5.813422E-3,-3.558833E-2,-4.838382E-2,-1.6081307E-2,8.030526E-2,3.1754E-1,1.4169572E-1,5.932142E-3],"categories":[],"categories_nodes":[],"categories_segments":[],"categories_sizes":[],"default_left":[0,0,0,0,0,0,0,0,0,0,0,0,0,0,0],"id":37,"left_children":[1,3,5,7,9,11,13,-1,-1,-1,-1,-1,-1,-1,-1],"loss_changes":[7.495252E4,6.997578E2,6.8706016E3,2.3050262E2,5.9253906E1,3.6104844E3,7.946958E2,0E0,0E0,0E0,0E0,0E0,0E0,0E0,0E0],"parents":[2147483647,0,0,1,1,2,2,3,3,4,4,5,5,6,6],"right_children":[2,4,6,8,10,12,14,-1,-1,-1,-1,-1,-1,-1,-1],"split_conditions":[2E0,1E0,2.4969514E2,2.4151079E2,2.1264E1,4.7082584E1,3.2555118E2,5.813422E-3,-3.558833E-2,-4.838382E-2,-1.6081307E-2,8.030526E-2,3.1754E-1,1.4169572E-1,5.932142E-3],"split_indices":[4,4,3,3,0,3,3,0,0,0,0,0,0,0,0],"split_type":[0,0,0,0,0,0,0,0,0,0,0,0,0,0,0],"sum_hessian":[7.1E2,5.97E2,1.13E2,5.5E1,5.42E2,7.3E1,4E1,3.4E1,2.1E1,5.35E2,7E0,8E0,6.5E1,3.5E1,5E0],"tree_param":{"num_deleted":"0","num_feature":"5","num_nodes":"15","size_leaf_vector":"1"}},{"base_weights":[2.5025673E-2,-4.4107656E0,2.3293255E1,-1.0249584E0,-4.7518234E0,2.8246662E1,1.0807393E1,9.567031E-3,-3.0407876E-2,-4.8223216E-2,-2.8630959E-2,4.82045E-2,3.005649E-1,1.2549025E-1,5.8827093E-3],"categories":[],"categories_nodes":[],"categories_segments":[],"categories_sizes":[],"default_left":[0,0,0,0,0,0,0,0,0,0,0,0,0,0,0],"id":38,"left_children":[1,3,5,7,9,11,13,-1,-1,-1,-1,-1,-1,-1,-1],"loss_changes":[7.348719E4,6.856738E2,6.7453516E3,2.2661186E2,5.849414E1,3.2892969E3,5.977478E2,0E0,0E0,0E0,0E0,0E0,0E0,0E0,0E0],"parents":[2147483647,0,0,1,1,2,2,3,3,4,4,5,5,6,6],"right_children":[2,4,6,8,10,12,14,-1,-1,-1,-1,-1,-1,-1,-1],"split_conditions":[2E0,1E0,2.6260703E2,2.0652788E2,1.8993166E1,3.1989372E1,3.2555118E2,9.567031E-3,-3.0407876E-2,-4.8223216E-2,-2.8630959E-2,4.82045E-2,3.005649E-1,1.2549025E-1,5.8827093E-3],"split_indices":[4,4,3,3,0,3,3,0,0,0,0,0,0,0,0],"split_type":[0,0,0,0,0,0,0,0,0,0,0,0,0,0,0],"sum_hessian":[7.1E2,5.97E2,1.13E2,5.5E1,5.42E2,8E1,3.3E1,2.8E1,2.7E1,5.21E2,2.1E1,6E0,7.4E1,2.8E1,5E0],"tree_param":{"num_deleted":"0","num_feature":"5","num_nodes":"15","size_leaf_vector":"1"}},{"base_weights":[2.5313186E-2,-4.3668213E0,2.3064535E1,-1.015081E0,-4.704447E0,2.8734177E1,1.22689705E1,5.732537E-3,-3.495837E-2,-4.7424678E-2,-1.5690075E-2,7.860215E-2,3.114526E-1,5.9939664E-2,1.5658627E-1],"categories":[],"categories_nodes":[],"categories_segments":[],"categories_sizes":[],"default_left":[0,0,0,0,0,0,0,0,0,0,0,0,0,0,0],"id":39,"left_children":[1,3,5,7,9,11,13,-1,-1,-1,-1,-1,-1,-1,-1],"loss_changes":[7.204778E4,6.719414E2,6.6250586E3,2.2265915E2,5.7291016E1,3.4795273E3,7.782178E2,0E0,0E0,0E0,0E0,0E0,0E0,0E0,0E0],"parents":[2147483647,0,0,1,1,2,2,3,3,4,4,5,5,6,6],"right_children":[2,4,6,8,10,12,14,-1,-1,-1,-1,-1,-1,-1,-1],"split_conditions":[2E0,1E0,2.4969514E2,2.4151079E2,2.1264E1,4.7082584E1,3.7473333E0,5.732537E-3,-3.495837E-2,-4.7424678E-2,-1.5690075E-2,7.860215E-2,3.114526E-1,5.9939664E-2,1.5658627E-1],"split_indices":[4,4,3,3,0,3,0,0,0,0,0,0,0,0,0],"split_type":[0,0,0,0,0,0,0,0,0,0,0,0,0,0,0],"sum_hessian":[7.1E2,5.97E2,1.13E2,5.5E1,5.42E2,7.3E1,4E1,3.4E1,2.1E1,5.35E2,7E0,8E0,6.5E1,1.5E1,2.5E1],"tree_param":{"num_deleted":"0","num_feature":"5","num_nodes":"15","size_leaf_vector":"1"}},{"base_weights":[2.5783308E-2,-4.3233075E0,2.2839209E1,-1.005452E0,-4.657519E0,2.8452106E1,1.2151563E1,9.419309E-3,-2.9864755E-2,-4.726857E-2,-2.800595E-2,4.7117595E-2,3.047755E-1,5.937773E-2,1.5508065E-1],"categories":[],"categories_nodes":[],"categories_segments":[],"categories_sizes":[],"default_left":[0,0,0,0,0,0,0,0,0,0,0,0,0,0,0],"id":40,"left_children":[1,3,5,7,9,11,13,-1,-1,-1,-1,-1,-1,-1,-1],"loss_changes":[7.06425E4,6.58417E2,6.492965E3,2.1885046E2,5.6676758E1,3.4146758E3,7.630371E2,0E0,0E0,0E0,0E0,0E0,0E0,0E0,0E0],"parents":[2147483647,0,0,1,1,2,2,3,3,4,4,5,5,6,6],"right_children":[2,4,6,8,10,12,14,-1,-1,-1,-1,-1,-1,-1,-1],"split_conditions":[2E0,1E0,2.4969514E2,2.0652788E2,1.8993166E1,3.1989372E1,3.7473333E0,9.419309E-3,-2.9864755E-2,-4.726857E-2,-2.800595E-2,4.7117595E-2,3.047755E-1,5.937773E-2,1.5508065E-1],"split_indices":[4,4,3,3,0,3,0,0,0,0,0,0,0,0,0],"split_type":[0,0,0,0,0,0,0,0,0,0,0,0,0,0,0],"sum_hessian":[7.1E2,5.97E2,1.13E2,5.5E1,5.42E2,7.3E1,4E1,2.8E1,2.7E1,5.21E2,2.1E1,6E0,6.7E1,1.5E1,2.5E1],"tree_param":{"num_deleted":"0","num_feature":"5","num_nodes":"15","size_leaf_vector":"1"}},{"base_weights":[2.618724E-2,-4.280235E0,2.2615786E1,-9.9576277E-1,-4.611082E0,2.7428286E1,1.0485542E1,5.65269E-3,-3.4339603E-2,-4.6636295E-2,-2.2924347E-2,4.6713732E-2,2.9186553E-1,1.2206535E-1,4.198214E-3],"categories":[],"categories_nodes":[],"categories_segments":[],"categories_sizes":[],"default_left":[0,0,0,0,0,0,0,0,0,0,0,0,0,0,0],"id":41,"left_children":[1,3,5,7,9,11,13,-1,-1,-1,-1,-1,-1,-1,-1],"loss_changes":[6.9263125E4,6.4523145E2,6.3673516E3,2.1508295E2,5.5466797E1,3.1046953E3,5.838589E2,0E0,0E0,0E0,0E0,0E0,0E0,0E0,0E0],"parents":[2147483647,0,0,1,1,2,2,3,3,4,4,5,5,6,6],"right_children":[2,4,6,8,10,12,14,-1,-1,-1,-1,-1,-1,-1,-1],"split_conditions":[2E0,1E0,2.6260703E2,2.4151079E2,1.979525E1,3.1989372E1,3.2555118E2,5.65269E-3,-3.4339603E-2,-4.6636295E-2,-2.2924347E-2,4.6713732E-2,2.9186553E-1,1.2206535E-1,4.198214E-3],"split_indices":[4,4,3,3,0,3,3,0,0,0,0,0,0,0,0],"split_type":[0,0,0,0,0,0,0,0,0,0,0,0,0,0,0],"sum_hessian":[7.1E2,5.97E2,1.13E2,5.5E1,5.42E2,8E1,3.3E1,3.4E1,2.1E1,5.29E2,1.3E1,6E0,7.4E1,2.8E1,5E0],"tree_param":{"num_deleted":"0","num_feature":"5","num_nodes":"15","size_leaf_vector":"1"}},{"base_weights":[2.6440814E-2,-4.237597E0,2.2393705E1,-9.8631734E-1,-4.5650997E0,2.7904295E1,1.1901573E1,9.273788E-3,-2.933134E-2,-4.6331327E-2,-2.743357E-2,7.595205E-2,3.0250925E-1,1.3485181E-1,4.1632303E-3],"categories":[],"categories_nodes":[],"categories_segments":[],"categories_sizes":[],"default_left":[0,0,0,0,0,0,0,0,0,0,0,0,0,0,0],"id":42,"left_children":[1,3,5,7,9,11,13,-1,-1,-1,-1,-1,-1,-1,-1],"loss_changes":[6.7906414E4,6.32249E2,6.259125E3,2.1135458E2,5.4588867E1,3.2969219E3,7.401001E2,0E0,0E0,0E0,0E0,0E0,0E0,0E0,0E0],"parents":[2147483647,0,0,1,1,2,2,3,3,4,4,5,5,6,6],"right_children":[2,4,6,8,10,12,14,-1,-1,-1,-1,-1,-1,-1,-1],"split_conditions":[2E0,1E0,2.4969514E2,2.0652788E2,1.8993166E1,4.7082584E1,3.2555118E2,9.273788E-3,-2.933134E-2,-4.6331327E-2,-2.743357E-2,7.595205E-2,3.0250925E-1,1.3485181E-1,4.1632303E-3],"split_indices":[4,4,3,3,0,3,3,0,0,0,0,0,0,0,0],"split_type":[0,0,0,0,0,0,0,0,0,0,0,0,0,0,0],"sum_hessian":[7.1E2,5.97E2,1.13E2,5.5E1,5.42E2,7.3E1,4E1,2.8E1,2.7E1,5.21E2,2.1E1,8E0,6.5E1,3.5E1,5E0],"tree_param":{"num_deleted":"0","num_feature":"5","num_nodes":"15","size_leaf_vector":"1"}},{"base_weights":[2.6772274E-2,-4.195378E0,2.2174307E1,-9.7681224E-1,-4.5195847E0,2.7630365E1,1.1785948E1,5.573875E-3,-3.373184E-2,-4.5564193E-2,-1.48671055E-2,7.527692E-2,2.9952997E-1,5.6878515E-2,1.5085317E-1],"categories":[],"categories_nodes":[],"categories_segments":[],"categories_sizes":[],"default_left":[0,0,0,0,0,0,0,0,0,0,0,0,0,0,0],"id":43,"left_children":[1,3,5,7,9,11,13,-1,-1,-1,-1,-1,-1,-1,-1],"loss_changes":[6.657879E4,6.1958594E2,6.1358125E3,2.077649E2,5.388672E1,3.229668E3,7.391118E2,0E0,0E0,0E0,0E0,0E0,0E0,0E0,0E0],"parents":[2147483647,0,0,1,1,2,2,3,3,4,4,5,5,6,6],"right_children":[2,4,6,8,10,12,14,-1,-1,-1,-1,-1,-1,-1,-1],"split_conditions":[2E0,1E0,2.4969514E2,2.4151079E2,2.1264E1,4.7082584E1,3.7473333E0,5.573875E-3,-3.373184E-2,-4.5564193E-2,-1.48671055E-2,7.527692E-2,2.9952997E-1,5.6878515E-2,1.5085317E-1],"split_indices":[4,4,3,3,0,3,0,0,0,0,0,0,0,0,0],"split_type":[0,0,0,0,0,0,0,0,0,0,0,0,0,0,0],"sum_hessian":[7.1E2,5.97E2,1.13E2,5.5E1,5.42E2,7.3E1,4E1,3.4E1,2.1E1,5.35E2,7E0,8E0,6.5E1,1.5E1,2.5E1],"tree_param":{"num_deleted":"0","num_feature":"5","num_nodes":"15","size_leaf_vector":"1"}},{"base_weights":[2.7199242E-2,-4.153572E0,2.1957674E1,-9.675471E-1,-4.4745E0,2.6635437E1,1.0167778E1,9.1304295E-3,-2.8807458E-2,-4.541413E-2,-2.6834449E-2,4.5017075E-2,2.834611E-1,1.1851712E-1,3.341306E-3],"categories":[],"categories_nodes":[],"categories_segments":[],"categories_sizes":[],"default_left":[0,0,0,0,0,0,0,0,0,0,0,0,0,0,0],"id":44,"left_children":[1,3,5,7,9,11,13,-1,-1,-1,-1,-1,-1,-1,-1],"loss_changes":[6.528016E4,6.0711523E2,6.0163125E3,2.0411502E2,5.288965E1,2.9393516E3,5.5905347E2,0E0,0E0,0E0,0E0,0E0,0E0,0E0,0E0],"parents":[2147483647,0,0,1,1,2,2,3,3,4,4,5,5,6,6],"right_children":[2,4,6,8,10,12,14,-1,-1,-1,-1,-1,-1,-1,-1],"split_conditions":[2E0,1E0,2.6260703E2,2.0652788E2,1.8993166E1,3.1989372E1,3.2555118E2,9.1304295E-3,-2.8807458E-2,-4.541413E-2,-2.6834449E-2,4.5017075E-2,2.834611E-1,1.1851712E-1,3.341306E-3],"split_indices":[4,4,3,3,0,3,3,0,0,0,0,0,0,0,0],"split_type":[0,0,0,0,0,0,0,0,0,0,0,0,0,0,0],"sum_hessian":[7.1E2,5.97E2,1.13E2,5.5E1,5.42E2,8E1,3.3E1,2.8E1,2.7E1,5.21E2,2.1E1,6E0,7.4E1,2.8E1,5E0],"tree_param":{"num_deleted":"0","num_feature":"5","num_nodes":"15","size_leaf_vector":"1"}},{"base_weights":[2.7431417E-2,-4.1121902E0,2.1742048E1,-9.5822287E-1,-4.4298882E0,2.7098831E1,1.1543413E1,5.4960665E-3,-3.313487E-2,-4.466096E-2,-1.4502215E-2,7.367776E-2,2.937884E-1,5.5450134E-2,1.4790758E-1],"categories":[],"categories_nodes":[],"categories_segments":[],"categories_sizes":[],"default_left":[0,0,0,0,0,0,0,0,0,0,0,0,0,0,0],"id":45,"left_children":[1,3,5,7,9,11,13,-1,-1,-1,-1,-1,-1,-1,-1],"loss_changes":[6.400141E4,5.9495605E2,5.9152227E3,2.0069598E2,5.2106445E1,3.112582E3,7.1661816E2,0E0,0E0,0E0,0E0,0E0,0E0,0E0,0E0],"parents":[2147483647,0,0,1,1,2,2,3,3,4,4,5,5,6,6],"right_children":[2,4,6,8,10,12,14,-1,-1,-1,-1,-1,-1,-1,-1],"split_conditions":[2E0,1E0,2.4969514E2,2.4151079E2,2.1264E1,4.7082584E1,3.7473333E0,5.4960665E-3,-3.313487E-2,-4.466096E-2,-1.4502215E-2,7.367776E-2,2.937884E-1,5.5450134E-2,1.4790758E-1],"split_indices":[4,4,3,3,0,3,0,0,0,0,0,0,0,0,0],"split_type":[0,0,0,0,0,0,0,0,0,0,0,0,0,0,0],"sum_hessian":[7.1E2,5.97E2,1.13E2,5.5E1,5.42E2,7.3E1,4E1,3.4E1,2.1E1,5.35E2,7E0,8E0,6.5E1,1.5E1,2.5E1],"tree_param":{"num_deleted":"0","num_feature":"5","num_nodes":"15","size_leaf_vector":"1"}},{"base_weights":[2.783773E-2,-4.0712132E0,2.1529634E1,-9.4913423E-1,-4.3856983E0,2.6832808E1,1.143294E1,8.989208E-3,-2.8292933E-2,-4.4515107E-2,-2.6247952E-2,4.3999687E-2,2.874747E-1,1.2978461E-1,2.5431823E-3],"categories":[],"categories_nodes":[],"categories_segments":[],"categories_sizes":[],"default_left":[0,0,0,0,0,0,0,0,0,0,0,0,0,0,0],"id":46,"left_children":[1,3,5,7,9,11,13,-1,-1,-1,-1,-1,-1,-1,-1],"loss_changes":[6.275303E4,5.8298145E2,5.797297E3,1.9712303E2,5.124414E1,3.0519102E3,7.050488E2,0E0,0E0,0E0,0E0,0E0,0E0,0E0,0E0],"parents":[2147483647,0,0,1,1,2,2,3,3,4,4,5,5,6,6],"right_children":[2,4,6,8,10,12,14,-1,-1,-1,-1,-1,-1,-1,-1],"split_conditions":[2E0,1E0,2.4969514E2,2.0652788E2,1.8993166E1,3.1989372E1,3.2555118E2,8.989208E-3,-2.8292933E-2,-4.4515107E-2,-2.6247952E-2,4.3999687E-2,2.874747E-1,1.2978461E-1,2.5431823E-3],"split_indices":[4,4,3,3,0,3,3,0,0,0,0,0,0,0,0],"split_type":[0,0,0,0,0,0,0,0,0,0,0,0,0,0,0],"sum_hessian":[7.1E2,5.97E2,1.13E2,5.5E1,5.42E2,7.3E1,4E1,2.8E1,2.7E1,5.21E2,2.1E1,6E0,6.7E1,3.5E1,5E0],"tree_param":{"num_deleted":"0","num_feature":"5","num_nodes":"15","size_leaf_vector":"1"}},{"base_weights":[2.8084924E-2,-4.030652E0,2.1318405E1,-9.3998754E-1,-4.3419714E0,2.596412E1,1.0090529E1,5.419264E-3,-3.254851E-2,-4.3775633E-2,-1.4145651E-2,4.3622546E-2,2.765667E-1,1.1721844E-1,2.5219868E-3],"categories":[],"categories_nodes":[],"categories_segments":[],"categories_sizes":[],"default_left":[0,0,0,0,0,0,0,0,0,0,0,0,0,0,0],"id":47,"left_children":[1,3,5,7,9,11,13,-1,-1,-1,-1,-1,-1,-1,-1],"loss_changes":[6.152472E4,5.713047E2,5.684418E3,1.938679E2,5.0384766E1,2.8043398E3,5.587737E2,0E0,0E0,0E0,0E0,0E0,0E0,0E0,0E0],"parents":[2147483647,0,0,1,1,2,2,3,3,4,4,5,5,6,6],"right_children":[2,4,6,8,10,12,14,-1,-1,-1,-1,-1,-1,-1,-1],"split_conditions":[2E0,1E0,2.5916904E2,2.4151079E2,2.1264E1,3.1989372E1,3.2555118E2,5.419264E-3,-3.254851E-2,-4.3775633E-2,-1.4145651E-2,4.3622546E-2,2.765667E-1,1.1721844E-1,2.5219868E-3],"split_indices":[4,4,3,3,0,3,3,0,0,0,0,0,0,0,0],"split_type":[0,0,0,0,0,0,0,0,0,0,0,0,0,0,0],"sum_hessian":[7.1E2,5.97E2,1.13E2,5.5E1,5.42E2,7.9E1,3.4E1,3.4E1,2.1E1,5.35E2,7E0,6E0,7.3E1,2.9E1,5E0],"tree_param":{"num_deleted":"0","num_feature":"5","num_nodes":"15","size_leaf_vector":"1"}},{"base_weights":[2.830313E-2,-3.9904876E0,2.110908E1,-9.3107235E-1,-4.2986584E0,2.6315016E1,1.1198146E1,8.8500865E-3,-2.7787609E-2,-4.363389E-2,-2.567382E-2,7.118526E-2,2.8534004E-1,5.3068273E-2,1.4392875E-1],"categories":[],"categories_nodes":[],"categories_segments":[],"categories_sizes":[],"default_left":[0,0,0,0,0,0,0,0,0,0,0,0,0,0,0],"id":48,"left_children":[1,3,5,7,9,11,13,-1,-1,-1,-1,-1,-1,-1,-1],"loss_changes":[6.031961E4,5.5980566E2,5.5872266E3,1.9037013E2,4.9649414E1,2.9490469E3,6.952871E2,0E0,0E0,0E0,0E0,0E0,0E0,0E0,0E0],"parents":[2147483647,0,0,1,1,2,2,3,3,4,4,5,5,6,6],"right_children":[2,4,6,8,10,12,14,-1,-1,-1,-1,-1,-1,-1,-1],"split_conditions":[2E0,1E0,2.4969514E2,2.0652788E2,1.8993166E1,4.7082584E1,3.7473333E0,8.8500865E-3,-2.7787609E-2,-4.363389E-2,-2.567382E-2,7.118526E-2,2.8534004E-1,5.3068273E-2,1.4392875E-1],"split_indices":[4,4,3,3,0,3,0,0,0,0,0,0,0,0,0],"split_type":[0,0,0,0,0,0,0,0,0,0,0,0,0,0,0],"sum_hessian":[7.1E2,5.97E2,1.13E2,5.5E1,5.42E2,7.3E1,4E1,2.8E1,2.7E1,5.21E2,2.1E1,8E0,6.5E1,1.5E1,2.5E1],"tree_param":{"num_deleted":"0","num_feature":"5","num_nodes":"15","size_leaf_vector":"1"}},{"base_weights":[2.8674616E-2,-3.9507303E0,2.0902845E1,-9.2209977E-1,-4.2557993E0,2.6056684E1,1.1090969E1,5.343451E-3,-3.1972576E-2,-4.290786E-2,-1.3797228E-2,7.055251E-2,2.825299E-1,5.2570757E-2,1.4254482E-1],"categories":[],"categories_nodes":[],"categories_segments":[],"categories_sizes":[],"default_left":[0,0,0,0,0,0,0,0,0,0,0,0,0,0,0],"id":49,"left_children":[1,3,5,7,9,11,13,-1,-1,-1,-1,-1,-1,-1,-1],"loss_changes":[5.914306E4,5.485928E2,5.4758555E3,1.872724E2,4.871875E1,2.8889062E3,6.817422E2,0E0,0E0,0E0,0E0,0E0,0E0,0E0,0E0],"parents":[2147483647,0,0,1,1,2,2,3,3,4,4,5,5,6,6],"right_children":[2,4,6,8,10,12,14,-1,-1,-1,-1,-1,-1,-1,-1],"split_conditions":[2E0,1E0,2.4969514E2,2.4151079E2,2.1264E1,4.7082584E1,3.7473333E0,5.343451E-3,-3.1972576E-2,-4.290786E-2,-1.3797228E-2,7.055251E-2,2.825299E-1,5.2570757E-2,1.4254482E-1],"split_indices":[4,4,3,3,0,3,0,0,0,0,0,0,0,0,0],"split_type":[0,0,0,0,0,0,0,0,0,0,0,0,0,0,0],"sum_hessian":[7.1E2,5.97E2,1.13E2,5.5E1,5.42E2,7.3E1,4E1,3.4E1,2.1E1,5.35E2,7E0,8E0,6.5E1,1.5E1,2.5E1],"tree_param":{"num_deleted":"0","num_feature":"5","num_nodes":"15","size_leaf_vector":"1"}},{"base_weights":[2.9041475E-2,-3.9113624E0,2.0698626E1,-9.1335434E-1,-4.213346E0,2.5116674E1,9.564489E0,8.713045E-3,-2.7291311E-2,-4.2770132E-2,-2.5111804E-2,4.203374E-2,2.6733693E-1,1.119248E-1,1.0178708E-3],"categories":[],"categories_nodes":[],"categories_segments":[],"categories_sizes":[],"default_left":[0,0,0,0,0,0,0,0,0,0,0,0,0,0,0],"id":50,"left_children":[1,3,5,7,9,11,13,-1,-1,-1,-1,-1,-1,-1,-1],"loss_changes":[5.7989426E4,5.375508E2,5.3675625E3,1.8384828E2,4.810547E1,2.6268242E3,5.2263745E2,0E0,0E0,0E0,0E0,0E0,0E0,0E0,0E0],"parents":[2147483647,0,0,1,1,2,2,3,3,4,4,5,5,6,6],"right_children":[2,4,6,8,10,12,14,-1,-1,-1,-1,-1,-1,-1,-1],"split_conditions":[2E0,1E0,2.6260703E2,2.0652788E2,1.8993166E1,3.1989372E1,3.2555118E2,8.713045E-3,-2.7291311E-2,-4.2770132E-2,-2.5111804E-2,4.203374E-2,2.6733693E-1,1.119248E-1,1.0178708E-3],"split_indices":[4,4,3,3,0,3,3,0,0,0,0,0,0,0,0],"split_type":[0,0,0,0,0,0,0,0,0,0,0,0,0,0,0],"sum_hessian":[7.1E2,5.97E2,1.13E2,5.5E1,5.42E2,8E1,3.3E1,2.8E1,2.7E1,5.21E2,2.1E1,6E0,7.4E1,2.8E1,5E0],"tree_param":{"num_deleted":"0","num_feature":"5","num_nodes":"15","size_leaf_vector":"1"}},{"base_weights":[2.9223315E-2,-3.8723936E0,2.0495344E1,-9.0455246E-1,-4.171338E0,2.5555431E1,1.0862615E1,5.268627E-3,-3.1406876E-2,-4.219641E-2,-2.044751E-2,6.9051065E-2,2.7711454E-1,5.1236566E-2,1.3976488E-1],"categories":[],"categories_nodes":[],"categories_segments":[],"categories_sizes":[],"default_left":[0,0,0,0,0,0,0,0,0,0,0,0,0,0,0],"id":51,"left_children":[1,3,5,7,9,11,13,-1,-1,-1,-1,-1,-1,-1,-1],"loss_changes":[5.6853402E4,5.267842E2,5.279043E3,1.8090164E2,4.7149414E1,2.7842266E3,6.610757E2,0E0,0E0,0E0,0E0,0E0,0E0,0E0,0E0],"parents":[2147483647,0,0,1,1,2,2,3,3,4,4,5,5,6,6],"right_children":[2,4,6,8,10,12,14,-1,-1,-1,-1,-1,-1,-1,-1],"split_conditions":[2E0,1E0,2.4969514E2,2.4151079E2,1.979525E1,4.7082584E1,3.7473333E0,5.268627E-3,-3.1406876E-2,-4.219641E-2,-2.044751E-2,6.9051065E-2,2.7711454E-1,5.1236566E-2,1.3976488E-1],"split_indices":[4,4,3,3,0,3,0,0,0,0,0,0,0,0,0],"split_type":[0,0,0,0,0,0,0,0,0,0,0,0,0,0,0],"sum_hessian":[7.1E2,5.97E2,1.13E2,5.5E1,5.42E2,7.3E1,4E1,3.4E1,2.1E1,5.29E2,1.3E1,8E0,6.5E1,1.5E1,2.5E1],"tree_param":{"num_deleted":"0","num_feature":"5","num_nodes":"15","size_leaf_vector":"1"}},{"base_weights":[2.9561596E-2,-3.8338182E0,2.0295103E1,-8.9597386E-1,-4.1297398E0,2.5304556E1,1.0758648E1,8.578049E-3,-2.6803885E-2,-4.1638553E-2,-1.3277857E-2,6.843727E-2,2.743854E-1,1.2248115E-1,2.8732777E-4],"categories":[],"categories_nodes":[],"categories_segments":[],"categories_sizes":[],"default_left":[0,0,0,0,0,0,0,0,0,0,0,0,0,0,0],"id":52,"left_children":[1,3,5,7,9,11,13,-1,-1,-1,-1,-1,-1,-1,-1],"loss_changes":[5.5744473E4,5.161836E2,5.1738125E3,1.7754948E2,4.6376953E1,2.727457E3,6.549043E2,0E0,0E0,0E0,0E0,0E0,0E0,0E0,0E0],"parents":[2147483647,0,0,1,1,2,2,3,3,4,4,5,5,6,6],"right_children":[2,4,6,8,10,12,14,-1,-1,-1,-1,-1,-1,-1,-1],"split_conditions":[2E0,1E0,2.4969514E2,2.0652788E2,2.1264E1,4.7082584E1,3.2555118E2,8.578049E-3,-2.6803885E-2,-4.1638553E-2,-1.3277857E-2,6.843727E-2,2.743854E-1,1.2248115E-1,2.8732777E-4],"split_indices":[4,4,3,3,0,3,3,0,0,0,0,0,0,0,0],"split_type":[0,0,0,0,0,0,0,0,0,0,0,0,0,0,0],"sum_hessian":[7.1E2,5.97E2,1.13E2,5.5E1,5.42E2,7.3E1,4E1,2.8E1,2.7E1,5.35E2,7E0,8E0,6.5E1,3.5E1,5E0],"tree_param":{"num_deleted":"0","num_feature":"5","num_nodes":"15","size_leaf_vector":"1"}},{"base_weights":[2.9817695E-2,-3.7956026E0,2.0096235E1,-8.873397E-1,-4.088544E0,2.505614E1,1.0654056E1,5.194765E-3,-3.0851228E-2,-4.1506514E-2,-2.4290614E-2,4.049497E-2,2.6850116E-1,4.983708E-2,1.373373E-1],"categories":[],"categories_nodes":[],"categories_segments":[],"categories_sizes":[],"default_left":[0,0,0,0,0,0,0,0,0,0,0,0,0,0,0],"id":53,"left_children":[1,3,5,7,9,11,13,-1,-1,-1,-1,-1,-1,-1,-1],"loss_changes":[5.46544E4,5.0583887E2,5.0719336E3,1.7474776E2,4.5882812E1,2.6799883E3,6.475303E2,0E0,0E0,0E0,0E0,0E0,0E0,0E0,0E0],"parents":[2147483647,0,0,1,1,2,2,3,3,4,4,5,5,6,6],"right_children":[2,4,6,8,10,12,14,-1,-1,-1,-1,-1,-1,-1,-1],"split_conditions":[2E0,1E0,2.4969514E2,2.4151079E2,1.8993166E1,3.1989372E1,3.7473333E0,5.194765E-3,-3.0851228E-2,-4.1506514E-2,-2.4290614E-2,4.049497E-2,2.6850116E-1,4.983708E-2,1.373373E-1],"split_indices":[4,4,3,3,0,3,0,0,0,0,0,0,0,0,0],"split_type":[0,0,0,0,0,0,0,0,0,0,0,0,0,0,0],"sum_hessian":[7.1E2,5.97E2,1.13E2,5.5E1,5.42E2,7.3E1,4E1,3.4E1,2.1E1,5.21E2,2.1E1,6E0,6.7E1,1.5E1,2.5E1],"tree_param":{"num_deleted":"0","num_feature":"5","num_nodes":"15","size_leaf_vector":"1"}},{"base_weights":[3.0088691E-2,-3.7577996E0,1.9899626E1,-8.789243E-1,-4.04778E0,2.415356E1,9.179966E0,8.445068E-3,-2.6325163E-2,-4.1092243E-2,-2.405875E-2,4.014787E-2,2.571113E-1,1.077145E-1,-4.2204218E-4],"categories":[],"categories_nodes":[],"categories_segments":[],"categories_sizes":[],"default_left":[0,0,0,0,0,0,0,0,0,0,0,0,0,0,0],"id":54,"left_children":[1,3,5,7,9,11,13,-1,-1,-1,-1,-1,-1,-1,-1],"loss_changes":[5.3587184E4,4.9566406E2,4.976758E3,1.714661E2,4.4893555E1,2.4375469E3,4.994707E2,0E0,0E0,0E0,0E0,0E0,0E0,0E0,0E0],"parents":[2147483647,0,0,1,1,2,2,3,3,4,4,5,5,6,6],"right_children":[2,4,6,8,10,12,14,-1,-1,-1,-1,-1,-1,-1,-1],"split_conditions":[2E0,1E0,2.6260703E2,2.0652788E2,1.8993166E1,3.1989372E1,3.2555118E2,8.445068E-3,-2.6325163E-2,-4.1092243E-2,-2.405875E-2,4.014787E-2,2.571113E-1,1.077145E-1,-4.2204218E-4],"split_indices":[4,4,3,3,0,3,3,0,0,0,0,0,0,0,0],"split_type":[0,0,0,0,0,0,0,0,0,0,0,0,0,0,0],"sum_hessian":[7.1E2,5.97E2,1.13E2,5.5E1,5.42E2,8E1,3.3E1,2.8E1,2.7E1,5.21E2,2.1E1,6E0,7.4E1,2.8E1,5E0],"tree_param":{"num_deleted":"0","num_feature":"5","num_nodes":"15","size_leaf_vector":"1"}},{"base_weights":[3.0240238E-2,-3.7203605E0,1.9704178E1,-8.704542E-1,-4.007422E0,2.4573711E1,1.0434674E1,5.121874E-3,-3.030545E-2,-4.0407445E-2,-1.2738619E-2,1.9159576E-1,3.2784092E-1,4.8562787E-2,1.34662E-1],"categories":[],"categories_nodes":[],"categories_segments":[],"categories_sizes":[],"default_left":[0,0,0,0,0,0,0,0,0,0,0,0,0,0,0],"id":55,"left_children":[1,3,5,7,9,11,13,-1,-1,-1,-1,-1,-1,-1,-1],"loss_changes":[5.253735E4,4.8573438E2,4.889332E3,1.6880359E2,4.4314453E1,2.6613242E3,6.2795703E2,0E0,0E0,0E0,0E0,0E0,0E0,0E0,0E0],"parents":[2147483647,0,0,1,1,2,2,3,3,4,4,5,5,6,6],"right_children":[2,4,6,8,10,12,14,-1,-1,-1,-1,-1,-1,-1,-1],"split_conditions":[2E0,1E0,2.4969514E2,2.4151079E2,2.1264E1,5.7160835E0,3.7473333E0,5.121874E-3,-3.030545E-2,-4.0407445E-2,-1.2738619E-2,1.9159576E-1,3.2784092E-1,4.8562787E-2,1.34662E-1],"split_indices":[4,4,3,3,0,0,0,0,0,0,0,0,0,0,0],"split_type":[0,0,0,0,0,0,0,0,0,0,0,0,0,0,0],"sum_hessian":[7.1E2,5.97E2,1.13E2,5.5E1,5.42E2,7.3E1,4E1,3.4E1,2.1E1,5.35E2,7E0,4.6E1,2.7E1,1.5E1,2.5E1],"tree_param":{"num_deleted":"0","num_feature":"5","num_nodes":"15","size_leaf_vector":"1"}},{"base_weights":[3.0816106E-2,-3.6832876E0,1.95133E1,-8.621995E-1,-3.9674454E0,2.4334995E1,1.0334796E1,8.314077E-3,-2.5854997E-2,-4.0278807E-2,-2.3531424E-2,1.8972057E-1,3.2467958E-1,1.1788687E-1,-1.1102088E-3],"categories":[],"categories_nodes":[],"categories_segments":[],"categories_sizes":[],"default_left":[0,0,0,0,0,0,0,0,0,0,0,0,0,0,0],"id":56,"left_children":[1,3,5,7,9,11,13,-1,-1,-1,-1,-1,-1,-1,-1],"loss_changes":[5.151981E4,4.7595703E2,4.7936836E3,1.6559087E2,4.349707E1,2.6116406E3,6.23979E2,0E0,0E0,0E0,0E0,0E0,0E0,0E0,0E0],"parents":[2147483647,0,0,1,1,2,2,3,3,4,4,5,5,6,6],"right_children":[2,4,6,8,10,12,14,-1,-1,-1,-1,-1,-1,-1,-1],"split_conditions":[2E0,1E0,2.4969514E2,2.0652788E2,1.8993166E1,5.7160835E0,3.2555118E2,8.314077E-3,-2.5854997E-2,-4.0278807E-2,-2.3531424E-2,1.8972057E-1,3.2467958E-1,1.1788687E-1,-1.1102088E-3],"split_indices":[4,4,3,3,0,0,3,0,0,0,0,0,0,0,0],"split_type":[0,0,0,0,0,0,0,0,0,0,0,0,0,0,0],"sum_hessian":[7.1E2,5.97E2,1.13E2,5.5E1,5.42E2,7.3E1,4E1,2.8E1,2.7E1,5.21E2,2.1E1,4.6E1,2.7E1,3.5E1,5E0],"tree_param":{"num_deleted":"0","num_feature":"5","num_nodes":"15","size_leaf_vector":"1"}},{"base_weights":[3.1281266E-2,-3.6465907E0,1.9323704E1,-8.538908E-1,-3.9278884E0,2.3459814E1,8.901685E0,5.0499258E-3,-2.9769374E-2,-3.960646E-2,-1.2421255E-2,3.614789E-2,2.4999218E-1,1.0459237E-1,-1.1009582E-3],"categories":[],"categories_nodes":[],"categories_segments":[],"categories_sizes":[],"default_left":[0,0,0,0,0,0,0,0,0,0,0,0,0,0,0],"id":57,"left_children":[1,3,5,7,9,11,13,-1,-1,-1,-1,-1,-1,-1,-1],"loss_changes":[5.051951E4,4.6642236E2,4.705324E3,1.630618E2,4.2853516E1,2.3841484E3,4.7838647E2,0E0,0E0,0E0,0E0,0E0,0E0,0E0,0E0],"parents":[2147483647,0,0,1,1,2,2,3,3,4,4,5,5,6,6],"right_children":[2,4,6,8,10,12,14,-1,-1,-1,-1,-1,-1,-1,-1],"split_conditions":[2E0,1E0,2.6260703E2,2.4151079E2,2.1264E1,3.1989372E1,3.2555118E2,5.0499258E-3,-2.9769374E-2,-3.960646E-2,-1.2421255E-2,3.614789E-2,2.4999218E-1,1.0459237E-1,-1.1009582E-3],"split_indices":[4,4,3,3,0,3,3,0,0,0,0,0,0,0,0],"split_type":[0,0,0,0,0,0,0,0,0,0,0,0,0,0,0],"sum_hessian":[7.1E2,5.97E2,1.13E2,5.5E1,5.42E2,8E1,3.3E1,3.4E1,2.1E1,5.35E2,7E0,6E0,7.4E1,2.8E1,5E0],"tree_param":{"num_deleted":"0","num_feature":"5","num_nodes":"15","size_leaf_vector":"1"}},{"base_weights":[3.1408563E-2,-3.610253E0,1.9133884E1,-8.457931E-1,-3.888705E0,2.386932E1,1.0120319E1,5.000872E-3,-2.948521E-2,-3.9481483E-2,-2.301524E-2,1.8564449E-1,3.1921446E-1,4.644306E-2,1.310093E-1],"categories":[],"categories_nodes":[],"categories_segments":[],"categories_sizes":[],"default_left":[0,0,0,0,0,0,0,0,0,0,0,0,0,0,0],"id":58,"left_children":[1,3,5,7,9,11,13,-1,-1,-1,-1,-1,-1,-1,-1],"loss_changes":[4.9529617E4,4.570327E2,4.6243086E3,1.5995566E2,4.214453E1,2.5683438E3,6.0835156E2,0E0,0E0,0E0,0E0,0E0,0E0,0E0,0E0],"parents":[2147483647,0,0,1,1,2,2,3,3,4,4,5,5,6,6],"right_children":[2,4,6,8,10,12,14,-1,-1,-1,-1,-1,-1,-1,-1],"split_conditions":[2E0,1E0,2.4969514E2,2.4151079E2,1.8993166E1,5.7160835E0,3.7473333E0,5.000872E-3,-2.948521E-2,-3.9481483E-2,-2.301524E-2,1.8564449E-1,3.1921446E-1,4.644306E-2,1.310093E-1],"split_indices":[4,4,3,3,0,0,0,0,0,0,0,0,0,0,0],"split_type":[0,0,0,0,0,0,0,0,0,0,0,0,0,0,0],"sum_hessian":[7.1E2,5.97E2,1.13E2,5.5E1,5.42E2,7.3E1,4E1,3.4E1,2.1E1,5.21E2,2.1E1,4.6E1,2.7E1,1.5E1,2.5E1],"tree_param":{"num_deleted":"0","num_feature":"5","num_nodes":"15","size_leaf_vector":"1"}},{"base_weights":[3.1931885E-2,-3.5742958E0,1.894853E1,-8.377725E-1,-3.849933E0,2.363745E1,1.0023444E1,8.13676E-3,-2.518281E-2,-3.8821355E-2,-1.2111189E-2,2.903819E-1,1.6047491E-1,4.600766E-2,1.297496E-1],"categories":[],"categories_nodes":[],"categories_segments":[],"categories_sizes":[],"default_left":[0,0,0,0,0,0,0,0,0,0,0,0,0,0,0],"id":59,"left_children":[1,3,5,7,9,11,13,-1,-1,-1,-1,-1,-1,-1,-1],"loss_changes":[4.857041E4,4.478374E2,4.5338594E3,1.5746437E2,4.1441406E1,2.567375E3,5.9651514E2,0E0,0E0,0E0,0E0,0E0,0E0,0E0,0E0],"parents":[2147483647,0,0,1,1,2,2,3,3,4,4,5,5,6,6],"right_children":[2,4,6,8,10,12,14,-1,-1,-1,-1,-1,-1,-1,-1],"split_conditions":[2E0,1E0,2.4969514E2,2.0652788E2,2.1264E1,2E-1,3.7473333E0,8.13676E-3,-2.518281E-2,-3.8821355E-2,-1.2111189E-2,2.903819E-1,1.6047491E-1,4.600766E-2,1.297496E-1],"split_indices":[4,4,3,3,0,1,0,0,0,0,0,0,0,0,0],"split_type":[0,0,0,0,0,0,0,0,0,0,0,0,0,0,0],"sum_hessian":[7.1E2,5.97E2,1.13E2,5.5E1,5.42E2,7.3E1,4E1,2.8E1,2.7E1,5.35E2,7E0,4.1E1,3.2E1,1.5E1,2.5E1],"tree_param":{"num_deleted":"0","num_feature":"5","num_nodes":"15","size_leaf_vector":"1"}},{"base_weights":[3.239815E-2,-3.5386667E0,1.8764542E1,-8.296992E-1,-3.8115277E0,2.3407167E1,9.927496E0,4.9303663E-3,-2.8963381E-2,-3.874588E-2,-2.349932E-2,5.7689227E-2,2.5457728E-1,1.1346702E-1,-2.423237E-3],"categories":[],"categories_nodes":[],"categories_segments":[],"categories_sizes":[],"default_left":[0,0,0,0,0,0,0,0,0,0,0,0,0,0,0],"id":60,"left_children":[1,3,5,7,9,11,13,-1,-1,-1,-1,-1,-1,-1,-1],"loss_changes":[4.7627824E4,4.388623E2,4.444711E3,1.5451057E2,4.0942383E1,2.5295898E3,5.9450586E2,0E0,0E0,0E0,0E0,0E0,0E0,0E0,0E0],"parents":[2147483647,0,0,1,1,2,2,3,3,4,4,5,5,6,6],"right_children":[2,4,6,8,10,12,14,-1,-1,-1,-1,-1,-1,-1,-1],"split_conditions":[2E0,1E0,2.4969514E2,2.4151079E2,1.8630669E1,4.7082584E1,3.2555118E2,4.9303663E-3,-2.8963381E-2,-3.874588E-2,-2.349932E-2,5.7689227E-2,2.5457728E-1,1.1346702E-1,-2.423237E-3],"split_indices":[4,4,3,3,0,3,3,0,0,0,0,0,0,0,0],"split_type":[0,0,0,0,0,0,0,0,0,0,0,0,0,0,0],"sum_hessian":[7.1E2,5.97E2,1.13E2,5.5E1,5.42E2,7.3E1,4E1,3.4E1,2.1E1,5.18E2,2.4E1,8E0,6.5E1,3.5E1,5E0],"tree_param":{"num_deleted":"0","num_feature":"5","num_nodes":"15","size_leaf_vector":"1"}},{"base_weights":[3.2548185E-2,-3.5034242E0,1.8580608E1,-8.218314E-1,-3.773527E0,2.2564205E1,8.543789E0,8.010594E-3,-2.4733314E-2,-3.817963E-2,-1.8217761E-2,3.125811E-2,2.4077599E-1,1.0066574E-1,-2.403043E-3],"categories":[],"categories_nodes":[],"categories_segments":[],"categories_sizes":[],"default_left":[0,0,0,0,0,0,0,0,0,0,0,0,0,0,0],"id":61,"left_children":[1,3,5,7,9,11,13,-1,-1,-1,-1,-1,-1,-1,-1],"loss_changes":[4.6696336E4,4.300332E2,4.3652383E3,1.5207274E2,4.0137695E1,2.3075898E3,4.5721265E2,0E0,0E0,0E0,0E0,0E0,0E0,0E0,0E0],"parents":[2147483647,0,0,1,1,2,2,3,3,4,4,5,5,6,6],"right_children":[2,4,6,8,10,12,14,-1,-1,-1,-1,-1,-1,-1,-1],"split_conditions":[2E0,1E0,2.6260703E2,2.0652788E2,1.979525E1,3.1989372E1,3.2555118E2,8.010594E-3,-2.4733314E-2,-3.817963E-2,-1.8217761E-2,3.125811E-2,2.4077599E-1,1.0066574E-1,-2.403043E-3],"split_indices":[4,4,3,3,0,3,3,0,0,0,0,0,0,0,0],"split_type":[0,0,0,0,0,0,0,0,0,0,0,0,0,0,0],"sum_hessian":[7.1E2,5.97E2,1.13E2,5.5E1,5.42E2,8E1,3.3E1,2.8E1,2.7E1,5.29E2,1.3E1,6E0,7.4E1,2.8E1,5E0],"tree_param":{"num_deleted":"0","num_feature":"5","num_nodes":"15","size_leaf_vector":"1"}},{"base_weights":[3.264045E-2,-3.4685125E0,1.839805E1,-8.1391174E-1,-3.7358959E0,2.2956781E1,9.721367E0,4.860784E-3,-2.8450817E-2,-3.797811E-2,-2.3011005E-2,2.8319547E-1,1.5435784E-1,4.3979388E-2,1.2623425E-1],"categories":[],"categories_nodes":[],"categories_segments":[],"categories_sizes":[],"default_left":[0,0,0,0,0,0,0,0,0,0,0,0,0,0,0],"id":62,"left_children":[1,3,5,7,9,11,13,-1,-1,-1,-1,-1,-1,-1,-1],"loss_changes":[4.5781195E4,4.2141748E2,4.2860547E3,1.49251E2,3.9498535E1,2.5475312E3,5.7788745E2,0E0,0E0,0E0,0E0,0E0,0E0,0E0,0E0],"parents":[2147483647,0,0,1,1,2,2,3,3,4,4,5,5,6,6],"right_children":[2,4,6,8,10,12,14,-1,-1,-1,-1,-1,-1,-1,-1],"split_conditions":[2E0,1E0,2.4969514E2,2.4151079E2,1.8630669E1,2E-1,3.7473333E0,4.860784E-3,-2.8450817E-2,-3.797811E-2,-2.3011005E-2,2.8319547E-1,1.5435784E-1,4.3979388E-2,1.2623425E-1],"split_indices":[4,4,3,3,0,1,0,0,0,0,0,0,0,0,0],"split_type":[0,0,0,0,0,0,0,0,0,0,0,0,0,0,0],"sum_hessian":[7.1E2,5.97E2,1.13E2,5.5E1,5.42E2,7.3E1,4E1,3.4E1,2.1E1,5.18E2,2.4E1,4.1E1,3.2E1,1.5E1,2.5E1],"tree_param":{"num_deleted":"0","num_feature":"5","num_nodes":"15","size_leaf_vector":"1"}},{"base_weights":[3.3049952E-2,-3.4339688E0,1.8219402E1,-8.061938E-1,-3.6986492E0,2.2733126E1,9.628305E0,7.886316E-3,-2.4291847E-2,-3.729879E-2,-1.1438844E-2,1.7514798E-1,3.068056E-1,1.1015964E-1,-3.0236945E-3],"categories":[],"categories_nodes":[],"categories_segments":[],"categories_sizes":[],"default_left":[0,0,0,0,0,0,0,0,0,0,0,0,0,0,0],"id":63,"left_children":[1,3,5,7,9,11,13,-1,-1,-1,-1,-1,-1,-1,-1],"loss_changes":[4.4892836E4,4.1293896E2,4.201793E3,1.4686542E2,3.9057617E1,2.531586E3,5.6832715E2,0E0,0E0,0E0,0E0,0E0,0E0,0E0,0E0],"parents":[2147483647,0,0,1,1,2,2,3,3,4,4,5,5,6,6],"right_children":[2,4,6,8,10,12,14,-1,-1,-1,-1,-1,-1,-1,-1],"split_conditions":[2E0,1E0,2.4969514E2,2.0652788E2,2.1264E1,5.7160835E0,3.2555118E2,7.886316E-3,-2.4291847E-2,-3.729879E-2,-1.1438844E-2,1.7514798E-1,3.068056E-1,1.1015964E-1,-3.0236945E-3],"split_indices":[4,4,3,3,0,0,3,0,0,0,0,0,0,0,0],"split_type":[0,0,0,0,0,0,0,0,0,0,0,0,0,0,0],"sum_hessian":[7.1E2,5.97E2,1.13E2,5.5E1,5.42E2,7.3E1,4E1,2.8E1,2.7E1,5.35E2,7E0,4.6E1,2.7E1,3.5E1,5E0],"tree_param":{"num_deleted":"0","num_feature":"5","num_nodes":"15","size_leaf_vector":"1"}},{"base_weights":[3.345633E-2,-3.399738E0,1.8042376E1,-7.984246E-1,-3.6617525E0,2.191543E1,8.284734E0,4.79212E-3,-2.794736E-2,-3.722679E-2,-2.2504436E-2,2.7057495E-2,2.3416127E-1,9.775173E-2,-2.9984936E-3],"categories":[],"categories_nodes":[],"categories_segments":[],"categories_sizes":[],"default_left":[0,0,0,0,0,0,0,0,0,0,0,0,0,0,0],"id":64,"left_children":[1,3,5,7,9,11,13,-1,-1,-1,-1,-1,-1,-1,-1],"loss_changes":[4.4021133E4,4.046626E2,4.126711E3,1.4417068E2,3.831299E1,2.2717031E3,4.3795483E2,0E0,0E0,0E0,0E0,0E0,0E0,0E0,0E0],"parents":[2147483647,0,0,1,1,2,2,3,3,4,4,5,5,6,6],"right_children":[2,4,6,8,10,12,14,-1,-1,-1,-1,-1,-1,-1,-1],"split_conditions":[2E0,1E0,2.6260703E2,2.4151079E2,1.8630669E1,3.1989372E1,3.2555118E2,4.79212E-3,-2.794736E-2,-3.722679E-2,-2.2504436E-2,2.7057495E-2,2.3416127E-1,9.775173E-2,-2.9984936E-3],"split_indices":[4,4,3,3,0,3,3,0,0,0,0,0,0,0,0],"split_type":[0,0,0,0,0,0,0,0,0,0,0,0,0,0,0],"sum_hessian":[7.1E2,5.97E2,1.13E2,5.5E1,5.42E2,8E1,3.3E1,3.4E1,2.1E1,5.18E2,2.4E1,6E0,7.4E1,2.8E1,5E0],"tree_param":{"num_deleted":"0","num_feature":"5","num_nodes":"15","size_leaf_vector":"1"}},{"base_weights":[3.350575E-2,-3.3658793E0,1.7865074E1,-7.908539E-1,-3.625245E0,2.2298103E1,9.428266E0,7.763905E-3,-2.3858266E-2,-3.65596E-2,-1.1141841E-2,2.761176E-1,1.4859566E-1,4.2019032E-2,1.2281862E-1],"categories":[],"categories_nodes":[],"categories_segments":[],"categories_sizes":[],"default_left":[0,0,0,0,0,0,0,0,0,0,0,0,0,0,0],"id":65,"left_children":[1,3,5,7,9,11,13,-1,-1,-1,-1,-1,-1,-1,-1],"loss_changes":[4.315837E4,3.9652148E2,4.0534375E3,1.4183621E2,3.780664E1,2.5146094E3,5.5986426E2,0E0,0E0,0E0,0E0,0E0,0E0,0E0,0E0],"parents":[2147483647,0,0,1,1,2,2,3,3,4,4,5,5,6,6],"right_children":[2,4,6,8,10,12,14,-1,-1,-1,-1,-1,-1,-1,-1],"split_conditions":[2E0,1E0,2.4969514E2,2.0652788E2,2.1264E1,2E-1,3.7473333E0,7.763905E-3,-2.3858266E-2,-3.65596E-2,-1.1141841E-2,2.761176E-1,1.4859566E-1,4.2019032E-2,1.2281862E-1],"split_indices":[4,4,3,3,0,1,0,0,0,0,0,0,0,0,0],"split_type":[0,0,0,0,0,0,0,0,0,0,0,0,0,0,0],"sum_hessian":[7.1E2,5.97E2,1.13E2,5.5E1,5.42E2,7.3E1,4E1,2.8E1,2.7E1,5.35E2,7E0,4.1E1,3.2E1,1.5E1,2.5E1],"tree_param":{"num_deleted":"0","num_feature":"5","num_nodes":"15","size_leaf_vector":"1"}},{"base_weights":[3.3910193E-2,-3.3323274E0,1.7691595E1,-7.832328E-1,-3.5890806E0,2.2080862E1,9.338003E0,4.7243554E-3,-2.7452854E-2,-3.7359476E-2,-2.9769935E-2,1.6928394E-1,2.9941043E-1,4.1625105E-2,1.2163769E-1],"categories":[],"categories_nodes":[],"categories_segments":[],"categories_sizes":[],"default_left":[0,0,0,0,0,0,0,0,0,0,0,0,0,0,0],"id":66,"left_children":[1,3,5,7,9,11,13,-1,-1,-1,-1,-1,-1,-1,-1],"loss_changes":[4.232077E4,3.8857275E2,3.9737422E3,1.3926347E2,3.7691406E1,2.4900977E3,5.489822E2,0E0,0E0,0E0,0E0,0E0,0E0,0E0,0E0],"parents":[2147483647,0,0,1,1,2,2,3,3,4,4,5,5,6,6],"right_children":[2,4,6,8,10,12,14,-1,-1,-1,-1,-1,-1,-1,-1],"split_conditions":[2E0,1E0,2.4969514E2,2.4151079E2,1.4957751E1,5.7160835E0,3.7473333E0,4.7243554E-3,-2.7452854E-2,-3.7359476E-2,-2.9769935E-2,1.6928394E-1,2.9941043E-1,4.1625105E-2,1.2163769E-1],"split_indices":[4,4,3,3,0,0,0,0,0,0,0,0,0,0,0],"split_type":[0,0,0,0,0,0,0,0,0,0,0,0,0,0,0],"sum_hessian":[7.1E2,5.97E2,1.13E2,5.5E1,5.42E2,7.3E1,4E1,3.4E1,2.1E1,4.33E2,1.09E2,4.6E1,2.7E1,1.5E1,2.5E1],"tree_param":{"num_deleted":"0","num_feature":"5","num_nodes":"15","size_leaf_vector":"1"}},{"base_weights":[3.4333635E-2,-3.299154E0,1.7520224E1,-7.758064E-1,-3.553313E0,2.1283968E1,8.038354E0,7.643328E-3,-2.3432434E-2,-3.6986742E-2,-2.9474942E-2,2.3004126E-2,2.277198E-1,9.511309E-2,-4.206581E-3],"categories":[],"categories_nodes":[],"categories_segments":[],"categories_sizes":[],"default_left":[0,0,0,0,0,0,0,0,0,0,0,0,0,0,0],"id":67,"left_children":[1,3,5,7,9,11,13,-1,-1,-1,-1,-1,-1,-1,-1],"loss_changes":[4.1501277E4,3.8075928E2,3.8972695E3,1.3697899E2,3.6916016E1,2.2356836E3,4.2763257E2,0E0,0E0,0E0,0E0,0E0,0E0,0E0,0E0],"parents":[2147483647,0,0,1,1,2,2,3,3,4,4,5,5,6,6],"right_children":[2,4,6,8,10,12,14,-1,-1,-1,-1,-1,-1,-1,-1],"split_conditions":[2E0,1E0,2.6260703E2,2.0652788E2,1.4957751E1,3.1989372E1,3.2555118E2,7.643328E-3,-2.3432434E-2,-3.6986742E-2,-2.9474942E-2,2.3004126E-2,2.277198E-1,9.511309E-2,-4.206581E-3],"split_indices":[4,4,3,3,0,3,3,0,0,0,0,0,0,0,0],"split_type":[0,0,0,0,0,0,0,0,0,0,0,0,0,0,0],"sum_hessian":[7.1E2,5.97E2,1.13E2,5.5E1,5.42E2,8E1,3.3E1,2.8E1,2.7E1,4.33E2,1.09E2,6E0,7.4E1,2.8E1,5E0],"tree_param":{"num_deleted":"0","num_feature":"5","num_nodes":"15","size_leaf_vector":"1"}},{"base_weights":[3.435502E-2,-3.2663002E0,1.7348017E1,-7.683306E-1,-3.5179024E0,2.165834E1,9.145285E0,4.6574804E-3,-2.696713E-2,-3.548135E-2,-1.0525959E-2,2.6923266E-1,1.4301214E-1,1.1640707E-1,3.5012044E-2],"categories":[],"categories_nodes":[],"categories_segments":[],"categories_sizes":[],"default_left":[0,0,0,0,0,0,0,0,0,0,0,0,0,0,0],"id":68,"left_children":[1,3,5,7,9,11,13,-1,-1,-1,-1,-1,-1,-1,-1],"loss_changes":[4.068777E4,3.731372E2,3.8325625E3,1.3452344E2,3.673584E1,2.481336E3,5.367024E2,0E0,0E0,0E0,0E0,0E0,0E0,0E0,0E0],"parents":[2147483647,0,0,1,1,2,2,3,3,4,4,5,5,6,6],"right_children":[2,4,6,8,10,12,14,-1,-1,-1,-1,-1,-1,-1,-1],"split_conditions":[2E0,1E0,2.4969514E2,2.4151079E2,2.1264E1,2E-1,3.0891147E2,4.6574804E-3,-2.696713E-2,-3.548135E-2,-1.0525959E-2,2.6923266E-1,1.4301214E-1,1.1640707E-1,3.5012044E-2],"split_indices":[4,4,3,3,0,1,3,0,0,0,0,0,0,0,0],"split_type":[0,0,0,0,0,0,0,0,0,0,0,0,0,0,0],"sum_hessian":[7.1E2,5.97E2,1.13E2,5.5E1,5.42E2,7.3E1,4E1,3.4E1,2.1E1,5.35E2,7E0,4.1E1,3.2E1,2.7E1,1.3E1],"tree_param":{"num_deleted":"0","num_feature":"5","num_nodes":"15","size_leaf_vector":"1"}},{"base_weights":[3.470825E-2,-3.2337513E0,1.7179482E1,-7.6104575E-1,-3.4828079E0,2.1447329E1,9.057525E0,7.5245555E-3,-2.3014205E-2,-3.541892E-2,-2.1169096E-2,1.6359876E-1,2.9221004E-1,3.9845064E-2,1.18310146E-1],"categories":[],"categories_nodes":[],"categories_segments":[],"categories_sizes":[],"default_left":[0,0,0,0,0,0,0,0,0,0,0,0,0,0,0],"id":69,"left_children":[1,3,5,7,9,11,13,-1,-1,-1,-1,-1,-1,-1,-1],"loss_changes":[3.9897863E4,3.6562402E2,3.7573516E3,1.3228784E2,3.632373E1,2.4485156E3,5.29728E2,0E0,0E0,0E0,0E0,0E0,0E0,0E0,0E0],"parents":[2147483647,0,0,1,1,2,2,3,3,4,4,5,5,6,6],"right_children":[2,4,6,8,10,12,14,-1,-1,-1,-1,-1,-1,-1,-1],"split_conditions":[2E0,1E0,2.4969514E2,2.0652788E2,1.8630669E1,5.7160835E0,3.7473333E0,7.5245555E-3,-2.3014205E-2,-3.541892E-2,-2.1169096E-2,1.6359876E-1,2.9221004E-1,3.9845064E-2,1.18310146E-1],"split_indices":[4,4,3,3,0,0,0,0,0,0,0,0,0,0,0],"split_type":[0,0,0,0,0,0,0,0,0,0,0,0,0,0,0],"sum_hessian":[7.1E2,5.97E2,1.13E2,5.5E1,5.42E2,7.3E1,4E1,2.8E1,2.7E1,5.18E2,2.4E1,4.6E1,2.7E1,1.5E1,2.5E1],"tree_param":{"num_deleted":"0","num_feature":"5","num_nodes":"15","size_leaf_vector":"1"}},{"base_weights":[3.512335E-2,-3.2015343E0,1.7013071E1,-7.53712E-1,-3.448084E0,2.1239016E1,8.970806E0,4.5914906E-3,-2.649004E-2,-3.5910357E-2,-2.8527286E-2,2.6445624E-1,1.3968818E-1,1.1433987E-1,3.4036707E-2],"categories":[],"categories_nodes":[],"categories_segments":[],"categories_sizes":[],"default_left":[0,0,0,0,0,0,0,0,0,0,0,0,0,0,0],"id":70,"left_children":[1,3,5,7,9,11,13,-1,-1,-1,-1,-1,-1,-1,-1],"loss_changes":[3.9125203E4,3.582998E2,3.6838867E3,1.2994495E2,3.596875E1,2.4317148E3,5.2331006E2,0E0,0E0,0E0,0E0,0E0,0E0,0E0,0E0],"parents":[2147483647,0,0,1,1,2,2,3,3,4,4,5,5,6,6],"right_children":[2,4,6,8,10,12,14,-1,-1,-1,-1,-1,-1,-1,-1],"split_conditions":[2E0,1E0,2.4969514E2,2.4151079E2,1.4957751E1,2E-1,3.0891147E2,4.5914906E-3,-2.649004E-2,-3.5910357E-2,-2.8527286E-2,2.6445624E-1,1.3968818E-1,1.1433987E-1,3.4036707E-2],"split_indices":[4,4,3,3,0,1,3,0,0,0,0,0,0,0,0],"split_type":[0,0,0,0,0,0,0,0,0,0,0,0,0,0,0],"sum_hessian":[7.1E2,5.97E2,1.13E2,5.5E1,5.42E2,7.3E1,4E1,3.4E1,2.1E1,4.33E2,1.09E2,4.1E1,3.2E1,2.7E1,1.3E1],"tree_param":{"num_deleted":"0","num_feature":"5","num_nodes":"15","size_leaf_vector":"1"}},{"base_weights":[3.5427667E-2,-3.1696634E0,1.6847788E1,-7.4656606E-1,-3.413722E0,2.0471924E1,7.718295E0,7.4075693E-3,-2.2603447E-2,-3.4433804E-2,-9.999011E-3,1.7005017E-2,2.1950963E-1,9.159529E-2,-5.340527E-3],"categories":[],"categories_nodes":[],"categories_segments":[],"categories_sizes":[],"default_left":[0,0,0,0,0,0,0,0,0,0,0,0,0,0,0],"id":71,"left_children":[1,3,5,7,9,11,13,-1,-1,-1,-1,-1,-1,-1,-1],"loss_changes":[3.8365742E4,3.510952E2,3.6138535E3,1.27757126E2,3.5430176E1,2.2115312E3,4.0927307E2,0E0,0E0,0E0,0E0,0E0,0E0,0E0,0E0],"parents":[2147483647,0,0,1,1,2,2,3,3,4,4,5,5,6,6],"right_children":[2,4,6,8,10,12,14,-1,-1,-1,-1,-1,-1,-1,-1],"split_conditions":[2E0,1E0,2.6260703E2,2.0652788E2,2.1264E1,3.1989372E1,3.2555118E2,7.4075693E-3,-2.2603447E-2,-3.4433804E-2,-9.999011E-3,1.7005017E-2,2.1950963E-1,9.159529E-2,-5.340527E-3],"split_indices":[4,4,3,3,0,3,3,0,0,0,0,0,0,0,0],"split_type":[0,0,0,0,0,0,0,0,0,0,0,0,0,0,0],"sum_hessian":[7.1E2,5.97E2,1.13E2,5.5E1,5.42E2,8E1,3.3E1,2.8E1,2.7E1,5.35E2,7E0,6E0,7.4E1,2.8E1,5E0],"tree_param":{"num_deleted":"0","num_feature":"5","num_nodes":"15","size_leaf_vector":"1"}},{"base_weights":[3.5443578E-2,-3.1380665E0,1.6682142E1,-7.3937154E-1,-3.3796666E0,2.0831963E1,8.785338E0,4.5263763E-3,-2.6021417E-2,-3.520854E-2,-2.7918948E-2,1.5808688E-1,2.8519887E-1,3.812414E-2,1.1507702E-1],"categories":[],"categories_nodes":[],"categories_segments":[],"categories_sizes":[],"default_left":[0,0,0,0,0,0,0,0,0,0,0,0,0,0,0],"id":72,"left_children":[1,3,5,7,9,11,13,-1,-1,-1,-1,-1,-1,-1,-1],"loss_changes":[3.7613387E4,3.4405762E2,3.5528008E3,1.2552242E2,3.5231445E1,2.4069102E3,5.1118994E2,0E0,0E0,0E0,0E0,0E0,0E0,0E0,0E0],"parents":[2147483647,0,0,1,1,2,2,3,3,4,4,5,5,6,6],"right_children":[2,4,6,8,10,12,14,-1,-1,-1,-1,-1,-1,-1,-1],"split_conditions":[2E0,1E0,2.4969514E2,2.4151079E2,1.4957751E1,5.7160835E0,3.7473333E0,4.5263763E-3,-2.6021417E-2,-3.520854E-2,-2.7918948E-2,1.5808688E-1,2.8519887E-1,3.812414E-2,1.1507702E-1],"split_indices":[4,4,3,3,0,0,0,0,0,0,0,0,0,0,0],"split_type":[0,0,0,0,0,0,0,0,0,0,0,0,0,0,0],"sum_hessian":[7.1E2,5.97E2,1.13E2,5.5E1,5.42E2,7.3E1,4E1,3.4E1,2.1E1,4.33E2,1.09E2,4.6E1,2.7E1,1.5E1,2.5E1],"tree_param":{"num_deleted":"0","num_feature":"5","num_nodes":"15","size_leaf_vector":"1"}},{"base_weights":[3.5809133E-2,-3.1068273E0,1.6520552E1,-7.323615E-1,-3.3459861E0,2.0629635E1,8.701221E0,7.2923503E-3,-2.2200022E-2,-3.39948E-2,-1.9246245E-2,2.578849E-1,1.3438678E-1,1.0007562E-1,-5.8702324E-3],"categories":[],"categories_nodes":[],"categories_segments":[],"categories_sizes":[],"default_left":[0,0,0,0,0,0,0,0,0,0,0,0,0,0,0],"id":73,"left_children":[1,3,5,7,9,11,13,-1,-1,-1,-1,-1,-1,-1,-1],"loss_changes":[3.688508E4,3.3713818E2,3.4833477E3,1.2338142E2,3.474463E1,2.3986172E3,5.0335278E2,0E0,0E0,0E0,0E0,0E0,0E0,0E0,0E0],"parents":[2147483647,0,0,1,1,2,2,3,3,4,4,5,5,6,6],"right_children":[2,4,6,8,10,12,14,-1,-1,-1,-1,-1,-1,-1,-1],"split_conditions":[2E0,1E0,2.4969514E2,2.0652788E2,1.8993166E1,2E-1,3.2555118E2,7.2923503E-3,-2.2200022E-2,-3.39948E-2,-1.9246245E-2,2.578849E-1,1.3438678E-1,1.0007562E-1,-5.8702324E-3],"split_indices":[4,4,3,3,0,1,3,0,0,0,0,0,0,0,0],"split_type":[0,0,0,0,0,0,0,0,0,0,0,0,0,0,0],"sum_hessian":[7.1E2,5.97E2,1.13E2,5.5E1,5.42E2,7.3E1,4E1,2.8E1,2.7E1,5.21E2,2.1E1,4.1E1,3.2E1,3.5E1,5E0],"tree_param":{"num_deleted":"0","num_feature":"5","num_nodes":"15","size_leaf_vector":"1"}},{"base_weights":[3.60393E-2,-3.0758731E0,1.6359613E1,-7.2530425E-1,-3.3126245E0,1.9883062E1,7.4843545E0,4.462123E-3,-2.5561122E-2,-3.4518097E-2,-2.73336E-2,1.32886255E-2,2.1349679E-1,8.895201E-2,-5.8213165E-3],"categories":[],"categories_nodes":[],"categories_segments":[],"categories_sizes":[],"default_left":[0,0,0,0,0,0,0,0,0,0,0,0,0,0,0],"id":74,"left_children":[1,3,5,7,9,11,13,-1,-1,-1,-1,-1,-1,-1,-1],"loss_changes":[3.616737E4,3.3038428E2,3.4161367E3,1.2125059E2,3.434424E1,2.175795E3,3.921178E2,0E0,0E0,0E0,0E0,0E0,0E0,0E0,0E0],"parents":[2147483647,0,0,1,1,2,2,3,3,4,4,5,5,6,6],"right_children":[2,4,6,8,10,12,14,-1,-1,-1,-1,-1,-1,-1,-1],"split_conditions":[2E0,1E0,2.6260703E2,2.4151079E2,1.4957751E1,3.1989372E1,3.2555118E2,4.462123E-3,-2.5561122E-2,-3.4518097E-2,-2.73336E-2,1.32886255E-2,2.1349679E-1,8.895201E-2,-5.8213165E-3],"split_indices":[4,4,3,3,0,3,3,0,0,0,0,0,0,0,0],"split_type":[0,0,0,0,0,0,0,0,0,0,0,0,0,0,0],"sum_hessian":[7.1E2,5.97E2,1.13E2,5.5E1,5.42E2,8E1,3.3E1,3.4E1,2.1E1,4.33E2,1.09E2,6E0,7.4E1,2.8E1,5E0],"tree_param":{"num_deleted":"0","num_feature":"5","num_nodes":"15","size_leaf_vector":"1"}},{"base_weights":[3.5998262E-2,-3.0452528E0,1.6198736E1,-7.1842796E-1,-3.2796118E0,2.023426E1,8.520019E0,7.1788547E-3,-2.18038E-2,-3.308622E-2,-9.259658E-3,2.5352165E-1,1.3107404E-1,3.637094E-2,1.1197203E-1],"categories":[],"categories_nodes":[],"categories_segments":[],"categories_sizes":[],"default_left":[0,0,0,0,0,0,0,0,0,0,0,0,0,0,0],"id":75,"left_children":[1,3,5,7,9,11,13,-1,-1,-1,-1,-1,-1,-1,-1],"loss_changes":[3.5458164E4,3.237412E2,3.3601914E3,1.1915528E2,3.4012207E1,2.3668184E3,4.9524683E2,0E0,0E0,0E0,0E0,0E0,0E0,0E0,0E0],"parents":[2147483647,0,0,1,1,2,2,3,3,4,4,5,5,6,6],"right_children":[2,4,6,8,10,12,14,-1,-1,-1,-1,-1,-1,-1,-1],"split_conditions":[2E0,1E0,2.4969514E2,2.0652788E2,2.1264E1,2E-1,3.7473333E0,7.1788547E-3,-2.18038E-2,-3.308622E-2,-9.259658E-3,2.5352165E-1,1.3107404E-1,3.637094E-2,1.1197203E-1],"split_indices":[4,4,3,3,0,1,0,0,0,0,0,0,0,0,0],"split_type":[0,0,0,0,0,0,0,0,0,0,0,0,0,0,0],"sum_hessian":[7.1E2,5.97E2,1.13E2,5.5E1,5.42E2,7.3E1,4E1,2.8E1,2.7E1,5.35E2,7E0,4.1E1,3.2E1,1.5E1,2.5E1],"tree_param":{"num_deleted":"0","num_feature":"5","num_nodes":"15","size_leaf_vector":"1"}},{"base_weights":[3.630773E-2,-3.0148957E0,1.6041424E1,-7.11505E-1,-3.2468936E0,2.0037115E1,8.4384365E0,4.39872E-3,-2.5109E-2,-3.384361E-2,-2.6750054E-2,1.5086141E-1,2.7632064E-1,1.0809214E-1,3.0941347E-2],"categories":[],"categories_nodes":[],"categories_segments":[],"categories_sizes":[],"default_left":[0,0,0,0,0,0,0,0,0,0,0,0,0,0,0],"id":76,"left_children":[1,3,5,7,9,11,13,-1,-1,-1,-1,-1,-1,-1,-1],"loss_changes":[3.4769953E4,3.1725098E2,3.2941484E3,1.17124275E2,3.3635254E1,2.3657168E3,4.86031E2,0E0,0E0,0E0,0E0,0E0,0E0,0E0,0E0],"parents":[2147483647,0,0,1,1,2,2,3,3,4,4,5,5,6,6],"right_children":[2,4,6,8,10,12,14,-1,-1,-1,-1,-1,-1,-1,-1],"split_conditions":[2E0,1E0,2.4969514E2,2.4151079E2,1.4957751E1,5.7160835E0,3.0891147E2,4.39872E-3,-2.5109E-2,-3.384361E-2,-2.6750054E-2,1.5086141E-1,2.7632064E-1,1.0809214E-1,3.0941347E-2],"split_indices":[4,4,3,3,0,0,3,0,0,0,0,0,0,0,0],"split_type":[0,0,0,0,0,0,0,0,0,0,0,0,0,0,0],"sum_hessian":[7.1E2,5.97E2,1.13E2,5.5E1,5.42E2,7.3E1,4E1,3.4E1,2.1E1,4.33E2,1.09E2,4.6E1,2.7E1,2.7E1,1.3E1],"tree_param":{"num_deleted":"0","num_feature":"5","num_nodes":"15","size_leaf_vector":"1"}},{"base_weights":[3.6626652E-2,-2.9848826E0,1.5885977E1,-7.0475966E-1,-3.2145364E0,1.9842516E1,8.357443E0,7.0670713E-3,-2.1414658E-2,-3.254674E-2,-1.4654394E-2,1.493849E-1,2.736561E-1,3.5402354E-2,1.1000439E-1],"categories":[],"categories_nodes":[],"categories_segments":[],"categories_sizes":[],"default_left":[0,0,0,0,0,0,0,0,0,0,0,0,0,0,0],"id":77,"left_children":[1,3,5,7,9,11,13,-1,-1,-1,-1,-1,-1,-1,-1],"loss_changes":[3.409647E4,3.1087012E2,3.229877E3,1.1507373E2,3.3351562E1,2.3213184E3,4.83062E2,0E0,0E0,0E0,0E0,0E0,0E0,0E0,0E0],"parents":[2147483647,0,0,1,1,2,2,3,3,4,4,5,5,6,6],"right_children":[2,4,6,8,10,12,14,-1,-1,-1,-1,-1,-1,-1,-1],"split_conditions":[2E0,1E0,2.4969514E2,2.0652788E2,1.979525E1,5.7160835E0,3.7473333E0,7.0670713E-3,-2.1414658E-2,-3.254674E-2,-1.4654394E-2,1.493849E-1,2.736561E-1,3.5402354E-2,1.1000439E-1],"split_indices":[4,4,3,3,0,0,0,0,0,0,0,0,0,0,0],"split_type":[0,0,0,0,0,0,0,0,0,0,0,0,0,0,0],"sum_hessian":[7.1E2,5.97E2,1.13E2,5.5E1,5.42E2,7.3E1,4E1,2.8E1,2.7E1,5.29E2,1.3E1,4.6E1,2.7E1,1.5E1,2.5E1],"tree_param":{"num_deleted":"0","num_feature":"5","num_nodes":"15","size_leaf_vector":"1"}},{"base_weights":[3.6973234E-2,-2.955137E0,1.5732104E1,-6.9796807E-1,-3.1824782E0,1.9124563E1,7.187361E0,4.3361685E-3,-2.4664909E-2,-3.318124E-2,-2.6183624E-2,8.246307E-3,2.0577562E-1,8.574066E-2,-7.1294373E-3],"categories":[],"categories_nodes":[],"categories_segments":[],"categories_sizes":[],"default_left":[0,0,0,0,0,0,0,0,0,0,0,0,0,0,0],"id":78,"left_children":[1,3,5,7,9,11,13,-1,-1,-1,-1,-1,-1,-1,-1],"loss_changes":[3.343616E4,3.046411E2,3.1671406E3,1.13138626E2,3.2862305E1,2.1368066E3,3.7859644E2,0E0,0E0,0E0,0E0,0E0,0E0,0E0,0E0],"parents":[2147483647,0,0,1,1,2,2,3,3,4,4,5,5,6,6],"right_children":[2,4,6,8,10,12,14,-1,-1,-1,-1,-1,-1,-1,-1],"split_conditions":[2E0,1E0,2.6260703E2,2.4151079E2,1.4957751E1,3.1989372E1,3.2555118E2,4.3361685E-3,-2.4664909E-2,-3.318124E-2,-2.6183624E-2,8.246307E-3,2.0577562E-1,8.574066E-2,-7.1294373E-3],"split_indices":[4,4,3,3,0,3,3,0,0,0,0,0,0,0,0],"split_type":[0,0,0,0,0,0,0,0,0,0,0,0,0,0,0],"sum_hessian":[7.1E2,5.97E2,1.13E2,5.5E1,5.42E2,8E1,3.3E1,3.4E1,2.1E1,4.33E2,1.09E2,6E0,7.4E1,2.8E1,5E0],"tree_param":{"num_deleted":"0","num_feature":"5","num_nodes":"15","size_leaf_vector":"1"}},{"base_weights":[3.6902875E-2,-2.9257188E0,1.557735E1,-6.9135153E-1,-3.1507628E0,1.946283E1,8.184597E0,6.9569717E-3,-2.1032466E-2,-3.2062966E-2,-1.8718496E-2,2.4527195E-1,1.2427489E-1,3.4440763E-2,1.0787048E-1],"categories":[],"categories_nodes":[],"categories_segments":[],"categories_sizes":[],"default_left":[0,0,0,0,0,0,0,0,0,0,0,0,0,0,0],"id":79,"left_children":[1,3,5,7,9,11,13,-1,-1,-1,-1,-1,-1,-1,-1],"loss_changes":[3.2780344E4,2.9851465E2,3.1152832E3,1.11131805E2,3.2563965E1,2.3317754E3,4.6866455E2,0E0,0E0,0E0,0E0,0E0,0E0,0E0,0E0],"parents":[2147483647,0,0,1,1,2,2,3,3,4,4,5,5,6,6],"right_children":[2,4,6,8,10,12,14,-1,-1,-1,-1,-1,-1,-1,-1],"split_conditions":[2E0,1E0,2.4969514E2,2.0652788E2,1.8630669E1,2E-1,3.7473333E0,6.9569717E-3,-2.1032466E-2,-3.2062966E-2,-1.8718496E-2,2.4527195E-1,1.2427489E-1,3.4440763E-2,1.0787048E-1],"split_indices":[4,4,3,3,0,1,0,0,0,0,0,0,0,0,0],"split_type":[0,0,0,0,0,0,0,0,0,0,0,0,0,0,0],"sum_hessian":[7.1E2,5.97E2,1.13E2,5.5E1,5.42E2,7.3E1,4E1,2.8E1,2.7E1,5.18E2,2.4E1,4.1E1,3.2E1,1.5E1,2.5E1],"tree_param":{"num_deleted":"0","num_feature":"5","num_nodes":"15","size_leaf_vector":"1"}},{"base_weights":[3.7162486E-2,-2.8965702E0,1.5426065E1,-6.8468946E-1,-3.1193488E0,1.9273193E1,8.106223E0,4.2744437E-3,-2.422871E-2,-3.147514E-2,-8.423454E-3,2.4287762E-1,1.230698E-1,1.0419209E-1,2.9012324E-2],"categories":[],"categories_nodes":[],"categories_segments":[],"categories_sizes":[],"default_left":[0,0,0,0,0,0,0,0,0,0,0,0,0,0,0],"id":80,"left_children":[1,3,5,7,9,11,13,-1,-1,-1,-1,-1,-1,-1,-1],"loss_changes":[3.2144146E4,2.9253418E2,3.0540508E3,1.0928871E2,3.217285E1,2.2860996E3,4.6337354E2,0E0,0E0,0E0,0E0,0E0,0E0,0E0,0E0],"parents":[2147483647,0,0,1,1,2,2,3,3,4,4,5,5,6,6],"right_children":[2,4,6,8,10,12,14,-1,-1,-1,-1,-1,-1,-1,-1],"split_conditions":[2E0,1E0,2.4969514E2,2.4151079E2,2.1264E1,2E-1,3.0891147E2,4.2744437E-3,-2.422871E-2,-3.147514E-2,-8.423454E-3,2.4287762E-1,1.230698E-1,1.0419209E-1,2.9012324E-2],"split_indices":[4,4,3,3,0,1,3,0,0,0,0,0,0,0,0],"split_type":[0,0,0,0,0,0,0,0,0,0,0,0,0,0,0],"sum_hessian":[7.1E2,5.97E2,1.13E2,5.5E1,5.42E2,7.3E1,4E1,3.4E1,2.1E1,5.35E2,7E0,4.1E1,3.2E1,2.7E1,1.3E1],"tree_param":{"num_deleted":"0","num_feature":"5","num_nodes":"15","size_leaf_vector":"1"}},{"base_weights":[3.7408594E-2,-2.8677046E0,1.5276183E1,-6.7819893E-1,-3.0882287E0,1.9085407E1,8.028409E0,6.84853E-3,-2.06571E-2,-3.2216273E-2,-2.5338346E-2,1.4251977E-1,2.6517043E-1,9.2741914E-2,-7.843568E-3],"categories":[],"categories_nodes":[],"categories_segments":[],"categories_sizes":[],"default_left":[0,0,0,0,0,0,0,0,0,0,0,0,0,0,0],"id":81,"left_children":[1,3,5,7,9,11,13,-1,-1,-1,-1,-1,-1,-1,-1],"loss_changes":[3.1520037E4,2.8664307E2,2.9941309E3,1.0732469E2,3.1995117E1,2.2801797E3,4.574048E2,0E0,0E0,0E0,0E0,0E0,0E0,0E0,0E0],"parents":[2147483647,0,0,1,1,2,2,3,3,4,4,5,5,6,6],"right_children":[2,4,6,8,10,12,14,-1,-1,-1,-1,-1,-1,-1,-1],"split_conditions":[2E0,1E0,2.4969514E2,2.0652788E2,1.4957751E1,5.7160835E0,3.2555118E2,6.84853E-3,-2.06571E-2,-3.2216273E-2,-2.5338346E-2,1.4251977E-1,2.6517043E-1,9.2741914E-2,-7.843568E-3],"split_indices":[4,4,3,3,0,0,3,0,0,0,0,0,0,0,0],"split_type":[0,0,0,0,0,0,0,0,0,0,0,0,0,0,0],"sum_hessian":[7.1E2,5.97E2,1.13E2,5.5E1,5.42E2,7.3E1,4E1,2.8E1,2.7E1,4.33E2,1.09E2,4.6E1,2.7E1,3.5E1,5E0],"tree_param":{"num_deleted":"0","num_feature":"5","num_nodes":"15","size_leaf_vector":"1"}},{"base_weights":[3.762682E-2,-2.839147E0,1.5127742E1,-6.716634E-1,-3.0574527E0,1.8395485E1,6.897892E0,4.213547E-3,-2.3800256E-2,-3.0852506E-2,-8.1280405E-3,2.9386873E-3,1.9839695E-1,8.2481116E-2,-7.778201E-3],"categories":[],"categories_nodes":[],"categories_segments":[],"categories_sizes":[],"default_left":[0,0,0,0,0,0,0,0,0,0,0,0,0,0,0],"id":82,"left_children":[1,3,5,7,9,11,13,-1,-1,-1,-1,-1,-1,-1,-1],"loss_changes":[3.0908064E4,2.809038E2,2.938914E3,1.0556999E2,3.1374023E1,2.1117188E3,3.587881E2,0E0,0E0,0E0,0E0,0E0,0E0,0E0,0E0],"parents":[2147483647,0,0,1,1,2,2,3,3,4,4,5,5,6,6],"right_children":[2,4,6,8,10,12,14,-1,-1,-1,-1,-1,-1,-1,-1],"split_conditions":[2E0,1E0,2.6260703E2,2.4151079E2,2.1264E1,3.1989372E1,3.2555118E2,4.213547E-3,-2.3800256E-2,-3.0852506E-2,-8.1280405E-3,2.9386873E-3,1.9839695E-1,8.2481116E-2,-7.778201E-3],"split_indices":[4,4,3,3,0,3,3,0,0,0,0,0,0,0,0],"split_type":[0,0,0,0,0,0,0,0,0,0,0,0,0,0,0],"sum_hessian":[7.1E2,5.97E2,1.13E2,5.5E1,5.42E2,8E1,3.3E1,3.4E1,2.1E1,5.35E2,7E0,6E0,7.4E1,2.8E1,5E0],"tree_param":{"num_deleted":"0","num_feature":"5","num_nodes":"15","size_leaf_vector":"1"}},{"base_weights":[3.7556227E-2,-2.8108537E0,1.4978886E1,-6.652964E-1,-3.0269501E0,1.8720194E1,7.8609433E0,6.741728E-3,-2.0288432E-2,-3.1587046E-2,-2.479601E-2,2.3688568E-1,1.1829527E-1,3.2232095E-2,1.0412589E-1],"categories":[],"categories_nodes":[],"categories_segments":[],"categories_sizes":[],"default_left":[0,0,0,0,0,0,0,0,0,0,0,0,0,0,0],"id":83,"left_children":[1,3,5,7,9,11,13,-1,-1,-1,-1,-1,-1,-1,-1],"loss_changes":[3.0301574E4,2.7524756E2,2.888709E3,1.0364781E2,3.132666E1,2.2531953E3,4.5162622E2,0E0,0E0,0E0,0E0,0E0,0E0,0E0,0E0],"parents":[2147483647,0,0,1,1,2,2,3,3,4,4,5,5,6,6],"right_children":[2,4,6,8,10,12,14,-1,-1,-1,-1,-1,-1,-1,-1],"split_conditions":[2E0,1E0,2.4969514E2,2.0652788E2,1.4957751E1,2E-1,3.7473333E0,6.741728E-3,-2.0288432E-2,-3.1587046E-2,-2.479601E-2,2.3688568E-1,1.1829527E-1,3.2232095E-2,1.0412589E-1],"split_indices":[4,4,3,3,0,1,0,0,0,0,0,0,0,0,0],"split_type":[0,0,0,0,0,0,0,0,0,0,0,0,0,0,0],"sum_hessian":[7.1E2,5.97E2,1.13E2,5.5E1,5.42E2,7.3E1,4E1,2.8E1,2.7E1,4.33E2,1.09E2,4.1E1,3.2E1,1.5E1,2.5E1],"tree_param":{"num_deleted":"0","num_feature":"5","num_nodes":"15","size_leaf_vector":"1"}},{"base_weights":[3.777373E-2,-2.782862E0,1.4833408E1,-6.5888524E-1,-2.9967844E0,1.853779E1,7.78566E0,4.153465E-3,-2.337941E-2,-3.0506466E-2,-1.7587338E-2,1.3765295E-1,2.58867E-1,3.1929918E-2,1.03124686E-1],"categories":[],"categories_nodes":[],"categories_segments":[],"categories_sizes":[],"default_left":[0,0,0,0,0,0,0,0,0,0,0,0,0,0,0],"id":84,"left_children":[1,3,5,7,9,11,13,-1,-1,-1,-1,-1,-1,-1,-1],"loss_changes":[2.9713512E4,2.6973584E2,2.8319336E3,1.0197797E2,3.0844727E1,2.2390352E3,4.4286865E2,0E0,0E0,0E0,0E0,0E0,0E0,0E0,0E0],"parents":[2147483647,0,0,1,1,2,2,3,3,4,4,5,5,6,6],"right_children":[2,4,6,8,10,12,14,-1,-1,-1,-1,-1,-1,-1,-1],"split_conditions":[2E0,1E0,2.4969514E2,2.4151079E2,1.8630669E1,5.7160835E0,3.7473333E0,4.153465E-3,-2.337941E-2,-3.0506466E-2,-1.7587338E-2,1.3765295E-1,2.58867E-1,3.1929918E-2,1.03124686E-1],"split_indices":[4,4,3,3,0,0,0,0,0,0,0,0,0,0,0],"split_type":[0,0,0,0,0,0,0,0,0,0,0,0,0,0,0],"sum_hessian":[7.1E2,5.97E2,1.13E2,5.5E1,5.42E2,7.3E1,4E1,3.4E1,2.1E1,5.18E2,2.4E1,4.6E1,2.7E1,1.5E1,2.5E1],"tree_param":{"num_deleted":"0","num_feature":"5","num_nodes":"15","size_leaf_vector":"1"}},{"base_weights":[3.8048953E-2,-2.755146E0,1.4689737E1,-6.5263957E-1,-2.966905E0,1.8357773E1,7.7110972E0,6.636537E-3,-1.9926349E-2,-3.096754E-2,-2.42762E-2,-3.0058177E-4,1.9980669E-1,9.956718E-2,2.6690619E-2],"categories":[],"categories_nodes":[],"categories_segments":[],"categories_sizes":[],"default_left":[0,0,0,0,0,0,0,0,0,0,0,0,0,0,0],"id":85,"left_children":[1,3,5,7,9,11,13,-1,-1,-1,-1,-1,-1,-1,-1],"loss_changes":[2.9138164E4,2.643081E2,2.7766016E3,1.0009672E2,3.050586E1,2.208877E3,4.3764722E2,0E0,0E0,0E0,0E0,0E0,0E0,0E0,0E0],"parents":[2147483647,0,0,1,1,2,2,3,3,4,4,5,5,6,6],"right_children":[2,4,6,8,10,12,14,-1,-1,-1,-1,-1,-1,-1,-1],"split_conditions":[2E0,1E0,2.4969514E2,2.0652788E2,1.4957751E1,3.1989372E1,3.0891147E2,6.636537E-3,-1.9926349E-2,-3.096754E-2,-2.42762E-2,-3.0058177E-4,1.9980669E-1,9.956718E-2,2.6690619E-2],"split_indices":[4,4,3,3,0,3,3,0,0,0,0,0,0,0,0],"split_type":[0,0,0,0,0,0,0,0,0,0,0,0,0,0,0],"sum_hessian":[7.1E2,5.97E2,1.13E2,5.5E1,5.42E2,7.3E1,4E1,2.8E1,2.7E1,4.33E2,1.09E2,6E0,6.7E1,2.7E1,1.3E1],"tree_param":{"num_deleted":"0","num_feature":"5","num_nodes":"15","size_leaf_vector":"1"}},{"base_weights":[3.803034E-2,-2.727709E0,1.4545699E1,-6.4635044E-1,-2.9373379E0,1.7759678E1,6.7838697E0,4.0941862E-3,-2.2966035E-2,-2.9753176E-2,-1.2897232E-2,-2.9800143E-4,1.9202471E-1,8.093464E-2,-8.947451E-3],"categories":[],"categories_nodes":[],"categories_segments":[],"categories_sizes":[],"default_left":[0,0,0,0,0,0,0,0,0,0,0,0,0,0,0],"id":86,"left_children":[1,3,5,7,9,11,13,-1,-1,-1,-1,-1,-1,-1,-1],"loss_changes":[2.8568146E4,2.590166E2,2.7234043E3,9.850829E1,3.0141602E1,2.0538945E3,3.5919714E2,0E0,0E0,0E0,0E0,0E0,0E0,0E0,0E0],"parents":[2147483647,0,0,1,1,2,2,3,3,4,4,5,5,6,6],"right_children":[2,4,6,8,10,12,14,-1,-1,-1,-1,-1,-1,-1,-1],"split_conditions":[2E0,1E0,2.5916904E2,2.4151079E2,1.979525E1,3.1989372E1,3.2555118E2,4.0941862E-3,-2.2966035E-2,-2.9753176E-2,-1.2897232E-2,-2.9800143E-4,1.9202471E-1,8.093464E-2,-8.947451E-3],"split_indices":[4,4,3,3,0,3,3,0,0,0,0,0,0,0,0],"split_type":[0,0,0,0,0,0,0,0,0,0,0,0,0,0,0],"sum_hessian":[7.1E2,5.97E2,1.13E2,5.5E1,5.42E2,7.9E1,3.4E1,3.4E1,2.1E1,5.29E2,1.3E1,6E0,7.3E1,2.9E1,5E0],"tree_param":{"num_deleted":"0","num_feature":"5","num_nodes":"15","size_leaf_vector":"1"}},{"base_weights":[3.7934408E-2,-2.7005348E0,1.44025545E1,-6.402239E-1,-2.908043E0,1.8003056E1,7.5528092E0,6.53293E-3,-1.9570729E-2,-3.0361732E-2,-2.3760738E-2,2.2935215E-1,1.11802116E-1,3.0471286E-2,1.00350425E-1],"categories":[],"categories_nodes":[],"categories_segments":[],"categories_sizes":[],"default_left":[0,0,0,0,0,0,0,0,0,0,0,0,0,0,0],"id":87,"left_children":[1,3,5,7,9,11,13,-1,-1,-1,-1,-1,-1,-1,-1],"loss_changes":[2.8007555E4,2.5380225E2,2.6755527E3,9.666705E1,2.9796875E1,2.2337793E3,4.2797192E2,0E0,0E0,0E0,0E0,0E0,0E0,0E0,0E0],"parents":[2147483647,0,0,1,1,2,2,3,3,4,4,5,5,6,6],"right_children":[2,4,6,8,10,12,14,-1,-1,-1,-1,-1,-1,-1,